// Rys quadrature Chebyshev interpolation coefficients.
// Auto-generated by gen_rys_table.py. Do not edit.
// Covers nrys = 1..5 (L_sum up to 8, d-shell quartets).
// Chebyshev degree = 13, intervals = 40, interval width = 2.5

#pragma once

#define RYS_MAX_NRYS    5
#define RYS_DEGREE      13
#define RYS_DEGREE1     14
#define RYS_INTERVAL    2.5
#define RYS_INTERVALS   40

static __device__ const double RYS_SMALLX_R0[] = {
    3.3333333333333331e-01,
    1.1558710999704784e-01,
    7.4155574714580919e-01,
    5.6939115967007681e-02,
    4.3719785275109579e-01,
    8.6949939491826322e-01,
    3.3648268067514947e-02,
    2.7618431387251241e-01,
    6.3467747623468629e-01,
    9.2215660849207204e-01,
    2.2163568807297859e-02,
    1.8783156765292647e-01,
    4.6159736149681579e-01,
    7.4833462838754727e-01,
    9.4849392628841633e-01,
};

static __device__ const double RYS_SMALLX_R1[] = {
    -8.8888885141358287e-02,
    -2.2717032421848415e-02,
    -4.2589043403040705e-02,
    -8.2608975215947567e-03,
    -3.7854175349849584e-02,
    -1.7456724954456604e-02,
    -3.8220447640124888e-03,
    -2.3502094714800137e-02,
    -2.7262581081544113e-02,
    -8.4410256562250652e-03,
    -1.9905979642409477e-03,
    -1.4087753186231566e-02,
    -2.3087509681829488e-02,
    -1.7572610033766978e-02,
    -4.5690229377726155e-03,
};

static __device__ const double RYS_SMALLX_W0[] = {
    1.0000000000000000e+00,
    6.5214515486254609e-01,
    3.4785484513745391e-01,
    4.6791393457269254e-01,
    3.6076157304813822e-01,
    1.7132449237916930e-01,
    3.6268378337840240e-01,
    3.1370664587789004e-01,
    2.2238103445334878e-01,
    1.0122853629035874e-01,
    2.9552422471524470e-01,
    2.6926671931003637e-01,
    2.1908636251571548e-01,
    1.4945134915038225e-01,
    6.6671344308621178e-02,
};

static __device__ const double RYS_SMALLX_W1[] = {
    -3.3333333870899651e-01,
    -1.2271359484117284e-01,
    -2.1061974386782367e-01,
    -5.6487142741090679e-02,
    -1.4907746703762825e-01,
    -1.2776873448139270e-01,
    -3.1368951880494933e-02,
    -8.9806517777901718e-02,
    -1.2932258319775514e-01,
    -8.2835277526172035e-02,
    -1.9242396565033459e-02,
    -5.6107130053106857e-02,
    -9.7303454182906535e-02,
    -1.0319374244005530e-01,
    -5.7486608529000449e-02,
};

static __device__ const double RYS_LARGEX_R[] = {
    5.0000000000000022e-01,
    2.7525512860841150e-01,
    2.7247448713915929e+00,
    1.9016350919349051e-01,
    1.7844927485432653e+00,
    5.5253437422632787e+00,
    1.4530352150332343e-01,
    1.3390972881263974e+00,
    3.9269635013583333e+00,
    8.5886356890120723e+00,
    1.1758132021180975e-01,
    1.0745620124371431e+00,
    3.0859374437181075e+00,
    6.4147297336630569e+00,
    1.1807189489973529e+01,
};

static __device__ const double RYS_LARGEX_W[] = {
    1.0000000000000000e+00,
    9.0824829046386324e-01,
    9.1751709536136705e-02,
    8.1765693911206094e-01,
    1.7723149208382666e-01,
    5.1115688041123864e-03,
    7.4602451535816405e-01,
    2.3447981532350970e-01,
    1.9270440241575506e-02,
    2.2522907675072632e-04,
    6.8928466986410342e-01,
    2.7096740596049090e-01,
    3.8223161001521289e-02,
    1.5161418686229736e-03,
    8.6213052614216592e-06,
};

static __device__ const double RYS_RW_DATA[] = {
    2.4430231046437317e-01,
    1.3026798662503747e-01,
    8.0986701936075392e-02,
    5.7689949976936779e-02,
    4.4718128968905667e-02,
    3.6514598767422544e-02,
    3.0860652065977073e-02,
    2.6726122825445963e-02,
    2.3570225934478689e-02,
    2.1081851059645232e-02,
    1.9069251784276889e-02,
    1.7407765595520035e-02,
    1.6012815380504832e-02,
    1.4824986333221714e-02,
    1.3801311186847066e-02,
    1.2909944487358056e-02,
    1.2126781251816652e-02,
    1.1433239009500593e-02,
    1.0814761408717498e-02,
    1.0259783520851546e-02,
    9.7590007294853353e-03,
    9.3048421039847104e-03,
    8.8910844894877460e-03,
    8.5125653075874847e-03,
    8.1649658092772630e-03,
    7.8446454055273659e-03,
    7.5485135609639729e-03,
    7.2739296745330797e-03,
    7.0186240634359659e-03,
    6.7806350362081061e-03,
    6.5582583578395279e-03,
    6.3500063500095249e-03,
    6.1545745489666381e-03,
    5.9708143402653225e-03,
    5.7977103565244837e-03,
    5.6343616981901126e-03,
    5.4799662435119087e-03,
    5.3338074706266517e-03,
    5.1952433346613104e-03,
    5.0636968354183347e-03,
    -8.1584961532585501e-02,
    -3.5524619417236787e-02,
    -1.5756233057436324e-02,
    -8.2408431805124499e-03,
    -4.9809529676530448e-03,
    -3.3261594437969644e-03,
    -2.3774004604403395e-03,
    -1.7837242677886441e-03,
    -1.3876852319506942e-03,
    -1.1103405672613939e-03,
    -9.0857496561799690e-04,
    -7.5721739615688542e-04,
    -6.4076902543145145e-04,
    -5.4926199398894432e-04,
    -4.7604883713086991e-04,
    -4.1655821619948706e-04,
    -3.6756261989881342e-04,
    -3.2673066504124084e-04,
    -2.9234424509518670e-04,
    -2.6311462642019420e-04,
    -2.3805981779720920e-04,
    -2.1642094268494672e-04,
    -1.9760405389670184e-04,
    -1.8113891322367771e-04,
    -1.6664930917151271e-04,
    -1.5383136379085126e-04,
    -1.4243746218099734e-04,
    -1.3226419863873151e-04,
    -1.2314323169991127e-04,
    -1.1493427255625267e-04,
    -1.0751965642260677e-04,
    -1.0080010120015265e-04,
    -9.4691365662763651e-05,
    -8.9121595553049099e-05,
    -8.4029200378805404e-05,
    -7.9361142995693846e-05,
    -7.5071552738805762e-05,
    -7.1120593997475606e-05,
    -6.7473537841912767e-05,
    -6.4099996096627705e-05,
    7.3964909437429288e-03,
    3.8420445622151752e-03,
    1.4303993180359224e-03,
    5.7982919906929362e-04,
    2.7669594407462114e-04,
    1.5143594988145691e-04,
    9.1569038738558114e-05,
    5.9523292948452462e-05,
    4.0849608642481929e-05,
    2.9239749404298195e-05,
    2.1645014469935379e-05,
    1.6469034507114937e-05,
    1.2820510764681100e-05,
    1.0175008976653337e-05,
    8.2101798976141556e-06,
    6.7204296522508696e-06,
    5.5704096883450148e-06,
    4.6685338857048223e-06,
    3.9513196089368190e-06,
    3.3738190720950908e-06,
    2.9036004003270951e-06,
    2.5168629359512679e-06,
    2.1958717276058670e-06,
    1.9272278507399451e-06,
    1.7006802536724869e-06,
    1.5082956120073671e-06,
    1.3438692577487595e-06,
    1.2025011942834763e-06,
    1.0802869178118382e-06,
    9.7408922154801241e-07,
    8.8136787897320199e-07,
    8.0005120010037434e-07,
    7.2843822588732117e-07,
    6.6512357789884243e-07,
    6.0893922618627408e-07,
    5.5890900823820061e-07,
    5.1421284184849840e-07,
    4.7415836796196845e-07,
    4.3815833211453446e-07,
    4.0571243037909661e-07,
    -1.1394106648138706e-04,
    -3.0140688469814807e-04,
    -1.1563278441435733e-04,
    -3.9416070584958827e-05,
    -1.5251078673693687e-05,
    -6.8848232490860997e-06,
    -3.5261167568709919e-06,
    -1.9862421294334085e-06,
    -1.2024941938698386e-06,
    -7.7000023026902118e-07,
    -5.1564993487353593e-07,
    -3.5819184425736707e-07,
    -2.5651286125460494e-07,
    -1.8849075449968075e-07,
    -1.4159693017405884e-07,
    -1.0842223956677595e-07,
    -8.4419531302303574e-08,
    -6.6706957667008316e-08,
    -5.3405965444214909e-08,
    -4.3261202487912138e-08,
    -3.5415028722942275e-08,
    -2.9269806146365792e-08,
    -2.4401587665406213e-08,
    -2.0504744797421210e-08,
    -1.7355687459017533e-08,
    -1.4788633457368918e-08,
    -1.2679140405649624e-08,
    -1.0932732646407073e-08,
    -9.4769303101551661e-09,
    -8.2555863502711160e-09,
    -7.2248123179580910e-09,
    -6.3500127007946490e-09,
    -5.6037025688454801e-09,
    -4.9638852538035548e-09,
    -4.4128348185239048e-09,
    -3.9361741499228188e-09,
    -3.5221710100779367e-09,
    -3.1611962915403195e-09,
    -2.8453039534203038e-09,
    -2.5679030618154726e-09,
    -5.8000129417814431e-05,
    1.2899926485289707e-05,
    7.8743569447958214e-06,
    2.5193996863107280e-06,
    8.2561041167085989e-07,
    3.1170826584074895e-07,
    1.3567434223703036e-07,
    6.6270352565120745e-08,
    3.5397227877908832e-08,
    2.0277145674256325e-08,
    1.2284341722076255e-08,
    7.7904622077961664e-09,
    5.1323109054165456e-09,
    3.4917673852320304e-09,
    2.4420525429467151e-09,
    1.7492009640874372e-09,
    1.2793775780900707e-09,
    9.5315109684762534e-10,
    7.2183407364448624e-10,
    5.5472199095593138e-10,
    4.3195484446749392e-10,
    3.4039261233794183e-10,
    2.7116223638808496e-10,
    2.1816027616183332e-10,
    1.7711729701978398e-10,
    1.4500053638818554e-10,
    1.1962518175028604e-10,
    9.9396696145627622e-11,
    8.3137373234310139e-11,
    6.9967630876181313e-11,
    5.9223755428165080e-11,
    5.0400105287846275e-11,
    4.3107959784309959e-11,
    3.7045988066824130e-11,
    3.1978747371714801e-11,
    2.7720915951227700e-11,
    2.4125594662772195e-11,
    2.1075583550424216e-11,
    1.8476781221632269e-11,
    1.6253205196101272e-11,
    6.4563296622551447e-06,
    4.9072089015129881e-07,
    -4.0946184499691318e-07,
    -1.4639018445770795e-07,
    -4.3212936074626366e-08,
    -1.3976822654819329e-08,
    -5.2086096678530708e-09,
    -2.2101066859249388e-09,
    -1.0418897014918274e-09,
    -5.3397067262624318e-10,
    -2.9264965511055236e-10,
    -1.6943793778218018e-10,
    -1.0268731065764180e-10,
    -6.4684549121093605e-11,
    -4.2116880145498693e-11,
    -2.8220261431512883e-11,
    -1.9388961540443159e-11,
    -1.3619223367179043e-11,
    -9.7562957641768477e-12,
    -7.1129898113645996e-12,
    -5.2685275347857475e-12,
    -3.9585895913787232e-12,
    -3.0132866126004847e-12,
    -2.3211165370478005e-12,
    -1.8075080511288591e-12,
    -1.4217117155925215e-12,
    -1.1286405856968734e-12,
    -9.0368183803207867e-13,
    -7.2933312349097585e-13,
    -5.9298978210980533e-13,
    -4.8547367298641676e-13,
    -4.0002675099075760e-13,
    -3.3161999558395226e-13,
    -2.7647898785794375e-13,
    -2.3174241058534033e-13,
    -1.9522855797681111e-13,
    -1.6525189070282526e-13,
    -1.4051149643296966e-13,
    -1.1998370214116976e-13,
    -1.0287338288015423e-13,
    1.2008883813319599e-08,
    -1.4747219279172802e-07,
    1.1063474481688280e-08,
    7.3791451965207049e-09,
    2.1417329102544901e-09,
    6.1508254735128320e-10,
    1.9891360934030254e-10,
    7.3616479408751936e-11,
    3.0659636143718357e-11,
    1.4060761339816015e-11,
    6.9717451275916260e-12,
    3.6851813658406576e-12,
    2.0546136186708877e-12,
    1.1982835948421208e-12,
    7.2638792693354570e-13,
    4.5529566932781132e-13,
    2.9384859804917824e-13,
    1.9460990151425762e-13,
    1.3187296302938225e-13,
    9.1214604795050789e-14,
    6.4269323762764985e-14,
    4.6046849358176951e-14,
    3.3490260901518934e-14,
    2.4701440748281592e-14,
    1.8452528646536428e-14,
    1.3941092374301235e-14,
    1.0647166448386342e-14,
    8.2153765423667401e-15,
    6.3983946197755274e-15,
    5.0274130964912355e-15,
    3.9782385282730872e-15,
    3.1749779342282161e-15,
    2.5500844192541819e-15,
    2.0618112852257720e-15,
    1.6778791369863491e-15,
    1.3748386730688540e-15,
    1.1292283901264176e-15,
    9.3640479500890813e-16,
    7.7640086717075943e-16,
    6.5222030269200590e-16,
    -6.8090179280880635e-08,
    1.3725209519086946e-08,
    6.3695139475566301e-10,
    -2.9382068063576528e-10,
    -9.7838241187589435e-11,
    -2.6225207759498677e-11,
    -7.5170987729949595e-12,
    -2.4450429382348485e-12,
    -9.0161559412028998e-13,
    -3.7020272527641841e-13,
    -1.6608464729906996e-13,
    -8.0152567820170886e-14,
    -4.1129610487180179e-14,
    -2.2199313040637949e-14,
    -1.2529338265783130e-14,
    -7.3466076061043525e-15,
    -4.4546732559346878e-15,
    -2.7810096805189863e-15,
    -1.7826494851905075e-15,
    -1.1706714127942113e-15,
    -7.8648673692340843e-16,
    -5.3709122533088671e-16,
    -3.7366127533575444e-16,
    -2.6318292021289229e-16,
    -1.8958036140028513e-16,
    -1.3796467280987837e-16,
    -1.0076950389546132e-16,
    -7.5026735434386385e-17,
    -5.7736697731269691e-17,
    -4.3352200731769805e-17,
    -3.2761339383729418e-17,
    -2.5790545684051015e-17,
    -2.0262046883355007e-17,
    -1.5931918731315938e-17,
    -1.2166246428555625e-17,
    -1.0416627048005223e-17,
    -7.8282681372864128e-18,
    -7.1745116722044587e-18,
    -4.4522158954591521e-18,
    -4.7964967438766763e-18,
    5.9497432336972325e-09,
    -5.5198357079713097e-10,
    -1.2179180245775888e-10,
    6.3349875035056028e-12,
    3.9570788318388188e-12,
    1.0651683280760099e-12,
    2.7888768678136293e-13,
    8.0718239219860814e-14,
    2.6465440272986554e-14,
    9.7331576074277465e-15,
    3.9522353120799365e-15,
    1.7319071897592762e-15,
    8.1590753858539040e-16,
    4.1215099714639479e-16,
    2.1520331904420099e-16,
    1.1791882985880409e-16,
    6.9806312766016376e-17,
    3.7014624489293560e-17,
    2.4071142333109098e-17,
    1.3735028995131560e-17,
    1.1180429966187772e-17,
    5.6145702704461041e-18,
    4.1072485976477044e-18,
    2.8915138373161407e-18,
    -1.7386969026444738e-19,
    4.9860685496069055e-19,
    -1.9775140258481629e-18,
    -8.0169487534384979e-19,
    -1.1951004196581524e-18,
    -9.8131511956645903e-19,
    -8.6867191556244977e-19,
    -3.0511762766251160e-18,
    -1.6879567206606794e-18,
    -1.6531151290318117e-18,
    -4.0825550424155792e-18,
    -8.0372448262320125e-19,
    -3.5812420444157542e-18,
    -9.1027886478915604e-19,
    -2.5295672058317756e-18,
    -1.7593312433178745e-18,
    1.8087089805733081e-10,
    -3.2275630080527992e-11,
    1.0519113069632807e-11,
    2.9055088304598088e-13,
    -1.3042002476142549e-13,
    -4.0291464742068181e-14,
    -1.0048362078836129e-14,
    -2.6404766487838471e-15,
    -7.7609811339143173e-16,
    -2.5529794835010161e-16,
    -9.4646089874763101e-17,
    -4.2018951865124578e-17,
    -2.3401645504157774e-17,
    -9.8713484822846225e-18,
    -5.2581433133582509e-18,
    -3.8000277074428082e-18,
    -2.3008230871543058e-18,
    -8.4383855087830994e-19,
    -1.0331964276581836e-18,
    -1.3399857773397960e-18,
    -2.9103358709920926e-18,
    -1.3822196365475504e-18,
    -1.6639798659415580e-18,
    -4.9231612920962583e-19,
    -1.1386912285467374e-18,
    -1.1999576064340152e-18,
    1.7004516125574063e-19,
    -3.7840670242559163e-19,
    -5.1967473939411104e-19,
    -6.6087104224327671e-19,
    -1.6714768567974568e-20,
    -1.1695947783442428e-19,
    -3.8890538014295680e-19,
    -2.2886242668348361e-19,
    1.7711624015042780e-19,
    -2.6979587217562960e-19,
    2.3591948979003605e-19,
    -6.8380983022290173e-19,
    6.1805800519363467e-19,
    -4.6496769625809777e-19,
    -7.8120011046526283e-11,
    7.5048117649005492e-12,
    -5.9990153721190454e-13,
    -4.8108291628357405e-14,
    2.5358190190684713e-15,
    1.3479845909583193e-15,
    3.5398656219119615e-16,
    9.4347948475541086e-17,
    3.3072727534309098e-17,
    5.2932039614239083e-18,
    8.5526392320275514e-18,
    5.4891484532305121e-18,
    -3.5860544683254159e-17,
    -6.1952242943957167e-18,
    -2.0999844156376797e-18,
    -2.5716025372963350e-18,
    -6.1979269770413249e-18,
    -4.8330722410091129e-18,
    -4.4067240536643974e-18,
    -3.2297057615019658e-18,
    -1.9222830316889315e-19,
    -5.1067188588769579e-18,
    -8.8208804846042182e-19,
    -6.9526511058274531e-19,
    -1.8753239207214868e-18,
    1.6874874768517049e-18,
    8.5624364566179090e-19,
    -1.7511694366888509e-18,
    1.6373189302425999e-18,
    4.1688879808508579e-19,
    -3.4036909568129978e-19,
    -8.0928453469434601e-19,
    -1.8977899702131032e-18,
    -3.7043644011369252e-19,
    -2.3920430590287277e-18,
    -3.1215984556776276e-19,
    -9.6384419849007264e-19,
    1.3572534410914362e-19,
    -1.3194158840529194e-18,
    -4.0269971419564202e-19,
    5.0428341455084584e-12,
    -6.3022611167844013e-13,
    1.8062971836889240e-14,
    3.7890385067096060e-15,
    5.8723461919081142e-17,
    -4.3505161828883154e-17,
    -6.9477924471839727e-18,
    -7.4206277089064531e-18,
    -4.0868803257581640e-18,
    -1.1768388106333716e-18,
    -4.0080804666521384e-18,
    -4.1996332481532765e-18,
    2.1413106587321645e-17,
    -2.9466066603151428e-18,
    -1.0872676060706736e-18,
    -2.1380155685523873e-18,
    -1.2976829151645062e-18,
    -5.9019575271366541e-21,
    -5.5165928369926434e-19,
    -1.1691534886031823e-18,
    -2.5478987059645513e-18,
    -1.0057296543041808e-18,
    -1.5158571282529374e-18,
    -5.1210127322804202e-19,
    -7.3060699364050723e-19,
    -9.2121848104136593e-19,
    1.4728597575311978e-19,
    2.2166542889255090e-19,
    -7.6270153764876980e-19,
    -1.5539842269180457e-19,
    3.8773134618112532e-19,
    -1.3858476946012349e-19,
    -3.2777808479272266e-19,
    -1.1336824010103411e-19,
    2.3053591235743652e-19,
    -3.1455634093894749e-19,
    3.0938586540063526e-19,
    -2.9540287201966176e-19,
    7.2706192890155727e-19,
    -3.8261564472606775e-19,
    3.6610233205951160e-13,
    1.9901608666770001e-14,
    7.1254668884849039e-16,
    -1.9265775179613444e-16,
    -1.2643342138501066e-17,
    -1.9776314577091673e-19,
    9.1106038962997638e-18,
    -1.4057382378740182e-17,
    -1.5842650367013471e-17,
    -8.8601939062621776e-18,
    1.5848050043348512e-18,
    -4.8752327710011204e-18,
    4.2511483045900945e-17,
    2.1249413777245382e-18,
    2.8996261919176101e-18,
    2.3251512518347715e-18,
    1.0340380181605631e-18,
    2.2563897485057197e-18,
    2.3623583965809208e-20,
    -1.5385702757160598e-18,
    2.0728851230570230e-18,
    2.0640262790698447e-18,
    1.7526590054062058e-18,
    1.8992939658796930e-18,
    2.5324482011347470e-18,
    -2.2024773550980368e-19,
    4.5088141097029105e-18,
    -1.7321149243502322e-19,
    5.6061295849147528e-18,
    2.2557569739352158e-18,
    1.5529975359237567e-18,
    2.4638976226625430e-18,
    1.7718531673784330e-18,
    1.7359959417160438e-18,
    2.8557960066667724e-18,
    3.6254397167814288e-18,
    2.4791896747832677e-18,
    2.2336309564529533e-18,
    2.1743610716815925e-18,
    3.1331832858938777e-18,
    -8.5413151963669648e-14,
    2.0866885455368623e-15,
    -2.0404126319847495e-16,
    1.2423441328861454e-17,
    -5.6612899776348130e-18,
    -4.9526815070112020e-18,
    2.0855579618956717e-18,
    -4.7536579207436526e-18,
    -2.3813304240909784e-18,
    -1.7081285078289358e-18,
    -2.7313252178994446e-18,
    -3.1007764652704483e-18,
    2.7837058527143028e-17,
    -8.9674179879481800e-19,
    -8.3914783664213954e-22,
    -2.0992506686518398e-18,
    -8.5261139171839111e-19,
    -2.5423345013577475e-19,
    -3.9833853290404044e-19,
    -6.8635783667921474e-19,
    -1.4952038974899489e-18,
    -9.8597581277128741e-19,
    -1.0834336916997034e-18,
    -3.5294741743352884e-19,
    -6.8686174138526102e-19,
    -7.5031908077867784e-19,
    -1.0904874239785034e-18,
    -8.8505887316556912e-19,
    -1.3456530675414997e-18,
    -1.4177559157208417e-18,
    -8.9047784417474149e-19,
    -6.9872448012720373e-19,
    -6.2940641455606563e-19,
    -1.2467922097175693e-18,
    -3.8575250497062622e-19,
    -1.0651386638085500e-18,
    -6.5860915504965695e-19,
    -1.3594656591193895e-18,
    -2.6763317157722767e-19,
    -8.5969953811452491e-19,
    7.3723996608874198e-01,
    4.6282855766953251e-01,
    3.5697744302982531e-01,
    3.0074543882638549e-01,
    2.6483676436232151e-01,
    2.3936960300674032e-01,
    2.2009054337833822e-01,
    2.0483631157613860e-01,
    1.9237457865817806e-01,
    1.8194452260445643e-01,
    1.7304741885708363e-01,
    1.6534081747781285e-01,
    1.5858069349258022e-01,
    1.5258780400723493e-01,
    1.4722711872279778e-01,
    1.4239471218633004e-01,
    1.3800911489611195e-01,
    1.3400543419406793e-01,
    1.3033125384114230e-01,
    1.2694370919637082e-01,
    1.2380735925154315e-01,
    1.2089261096860589e-01,
    1.1817453408929010e-01,
    1.1563195695558855e-01,
    1.1324676783161658e-01,
    1.1100336870525138e-01,
    1.0888824373374451e-01,
    1.0688961493432327e-01,
    1.0499716500989915e-01,
    1.0320181236627113e-01,
    1.0149552708883995e-01,
    9.9871179347008870e-02,
    9.8322413681670107e-02,
    9.6843544109550428e-02,
    9.5429466089096235e-02,
    9.4075582235214658e-02,
    9.2777739314972602e-02,
    9.1532174553811477e-02,
    9.0335469668616303e-02,
    8.9184511346895881e-02,
    -2.2202413473800198e-01,
    -7.4423796878491877e-02,
    -3.5861526514197363e-02,
    -2.1592299041615338e-02,
    -1.4763687221814023e-02,
    -1.0905780630662639e-02,
    -8.4791495771710818e-03,
    -6.8364322121134986e-03,
    -5.6635925112525033e-03,
    -4.7917496325152274e-03,
    -4.1228075353601243e-03,
    -3.5962785495983998e-03,
    -3.1730423343378214e-03,
    -2.8267910470324573e-03,
    -2.5392480455061215e-03,
    -2.2973614432678733e-03,
    -2.0915875073567801e-03,
    -1.9148030622782486e-03,
    -1.7615951343859840e-03,
    -1.6277844984419981e-03,
    -1.5100985399685396e-03,
    -1.4059419214158154e-03,
    -1.3132327956756477e-03,
    -1.2302838599335094e-03,
    -1.1557146571780415e-03,
    -1.0883860212251122e-03,
    -1.0273504549846513e-03,
    -9.7181413452995162e-04,
    -9.2110750539729758e-04,
    -8.7466230450565518e-04,
    -8.3199344013529253e-04,
    -7.9268458216156406e-04,
    -7.5637661270776604e-04,
    -7.2275830145600284e-04,
    -6.9155872539492457e-04,
    -6.6254106698124423e-04,
    -6.3549750936502407e-04,
    -6.1024501068867318e-04,
    -5.8662178729408556e-04,
    -5.6448437206491932e-04,
    3.5356734881098764e-02,
    8.0894999436692035e-03,
    2.6471199553527434e-03,
    1.1588269248306354e-03,
    6.1688286845573118e-04,
    3.7257409002338174e-04,
    2.4496769312689829e-04,
    1.7110898734583538e-04,
    1.2504495868906698e-04,
    9.4642326466851131e-05,
    7.3665088565421863e-05,
    5.8663869405609758e-05,
    4.7615482907066044e-05,
    3.9275021679842606e-05,
    3.2845277704857301e-05,
    2.7798197518805579e-05,
    2.3773726290036736e-05,
    2.0520110273465550e-05,
    1.7857402280601881e-05,
    1.5654454737063681e-05,
    1.3814017250945201e-05,
    1.2262848769196998e-05,
    1.0945014346035962e-05,
    9.8172521064686164e-06,
    8.8457145532123533e-06,
    8.0036398083970716e-06,
    7.2696630852012422e-06,
    6.6265759805260116e-06,
    6.0604035955343999e-06,
    5.5597102656355794e-06,
    5.1150717775994689e-06,
    4.7186702325312902e-06,
    4.3639802264249354e-06,
    4.0455237036801985e-06,
    3.7586769363887296e-06,
    3.4995174146363229e-06,
    3.2647015467360688e-06,
    3.0513663268446288e-06,
    2.8570497829912313e-06,
    2.6796262410487234e-06,
    -4.7762635447007361e-03,
    -8.5867961117953862e-04,
    -2.0864716724897114e-04,
    -6.8514245172553946e-05,
    -2.8597433530658632e-05,
    -1.4139029999735758e-05,
    -7.8631772964050276e-06,
    -4.7584134855453102e-06,
    -3.0675374053908510e-06,
    -2.0769588570653422e-06,
    -1.4624557082020953e-06,
    -1.0632644589333222e-06,
    -7.9391569516705894e-07,
    -6.0630834376214744e-07,
    -4.7205820262383494e-07,
    -3.7373096324773220e-07,
    -3.0024369054746528e-07,
    -2.4433794131577925e-07,
    -2.0113437483038855e-07,
    -1.6727652000866359e-07,
    -1.4040767399634323e-07,
    -1.1884245945449781e-07,
    -1.0135550073015181e-07,
    -8.7042434111498592e-08,
    -7.5226658057846718e-08,
    -6.5395631296487575e-08,
    -5.7156632729757803e-08,
    -5.0205569216157300e-08,
    -4.4304676275090137e-08,
    -3.9266369576911789e-08,
    -3.4941411533702182e-08,
    -3.1210143415019941e-08,
    -2.7975922195236128e-08,
    -2.5160159987096753e-08,
    -2.2698541294320430e-08,
    -2.0538113863027022e-08,
    -1.8635033747824923e-08,
    -1.6952804342358382e-08,
    -1.5460891630126034e-08,
    -1.4133627778413378e-08,
    5.4471941019905218e-04,
    8.3504565820765396e-05,
    1.6270684686444543e-05,
    4.1781525035271478e-06,
    1.3864932340669453e-06,
    5.6299105917237472e-07,
    2.6498638744632529e-07,
    1.3894089537649907e-07,
    7.9013050845639926e-08,
    4.7858276933536041e-08,
    3.0485334190735619e-08,
    2.0234826039574090e-08,
    1.3899155766277500e-08,
    9.8278543651456153e-09,
    7.1237123952898441e-09,
    5.2758189454403784e-09,
    3.9814290980686033e-09,
    3.0548556347412782e-09,
    2.3787179705666618e-09,
    1.8768118172601835e-09,
    1.4984782682527709e-09,
    1.2093185675698990e-09,
    9.8552388536733805e-10,
    8.1032831750868988e-10,
    6.7173740157415924e-10,
    5.6104649511841570e-10,
    4.7185443386676844e-10,
    3.9939596443590568e-10,
    3.4008442733414372e-10,
    2.9119131087043709e-10,
    2.5062153430888023e-10,
    2.1675096433645431e-10,
    1.8831086418401856e-10,
    1.6430144353504883e-10,
    1.4392965533463380e-10,
    1.2656170986345804e-10,
    1.1168791739612062e-10,
    9.8895863222819592e-11,
    8.7849771854375948e-11,
    7.8274885239960896e-11,
    -5.3271776517544363e-05,
    -7.3135152576678119e-06,
    -1.2117679891630145e-06,
    -2.5442917615057568e-07,
    -6.8552048000532790e-08,
    -2.3013311656004061e-08,
    -9.1817284877182938e-09,
    -4.1725803405021523e-09,
    -2.0933258016561245e-09,
    -1.1342763688867682e-09,
    -6.5363090416665260e-10,
    -3.9608759143103046e-10,
    -2.5028585157562277e-10,
    -1.6385428020609347e-10,
    -1.1057349942570631e-10,
    -7.6604580422226414e-11,
    -5.4304802813654990e-11,
    -3.9284798836548261e-11,
    -2.8935681979717587e-11,
    -2.1659111766107751e-11,
    -1.6449193289092456e-11,
    -1.2657400577359259e-11,
    -9.8564666986423410e-12,
    -7.7593673542565010e-12,
    -6.1696886714511684e-12,
    -4.9508716081601961e-12,
    -4.0066899119169404e-12,
    -3.2680724732770293e-12,
    -2.6850878373628110e-12,
    -2.2211032751997441e-12,
    -1.8489760492585693e-12,
    -1.5483249123911947e-12,
    -1.3037710525894158e-12,
    -1.1035833546802731e-12,
    -9.3872501284406910e-13,
    -8.0219759253955010e-13,
    -6.8853738626526069e-13,
    -5.9339874316974407e-13,
    -5.1343691238675150e-13,
    -4.4589157908486306e-13,
    4.5422877865974217e-06,
    5.7586980982147048e-07,
    8.4642353772250560e-08,
    1.5141224559748169e-08,
    3.3999323576242443e-09,
    9.5404933422016851e-10,
    3.2372369940622095e-10,
    1.2760469134953055e-10,
    5.6484604487956005e-11,
    2.7380917556187829e-11,
    1.4274065773926384e-11,
    7.8968548322669151e-12,
    4.5909332871177941e-12,
    2.7825649372146904e-12,
    1.7481849909981755e-12,
    1.1330680776652099e-12,
    7.5453676342894178e-13,
    5.1467442272039615e-13,
    3.5859068771249685e-13,
    2.5467739679157188e-13,
    1.8401990087278374e-13,
    1.3504268330917655e-13,
    1.0049925918050583e-13,
    7.5823630831081273e-14,
    5.7816541297380478e-14,
    4.4530190947598656e-14,
    3.4648208449426039e-14,
    2.7223923159639768e-14,
    2.1540341774455599e-14,
    1.7227454490497959e-14,
    1.3889247942750548e-14,
    1.1221803131949506e-14,
    9.1963398909149831e-15,
    7.5118242870761114e-15,
    6.2322700934479578e-15,
    5.2101701407650294e-15,
    4.3379309643866114e-15,
    3.6251079919688002e-15,
    2.9843357640679508e-15,
    2.5871889799936863e-15,
    -3.4262943953564301e-07,
    -4.0926331315149648e-08,
    -5.4981860558813249e-09,
    -8.6735048692389947e-10,
    -1.6689810797563548e-10,
    -3.9746135388912404e-11,
    -1.1536744657258645e-11,
    -3.9510745686244706e-12,
    -1.5437671347270464e-12,
    -6.6951950761384753e-13,
    -3.1579758164152759e-13,
    -1.5949926354363183e-13,
    -8.5504635099002265e-14,
    -4.7879203848658119e-14,
    -2.7996790644935250e-14,
    -1.6992279904998657e-14,
    -1.0637291776406129e-14,
    -6.8312146528252580e-15,
    -4.5116360612149468e-15,
    -3.0477699883996697e-15,
    -2.1057921178444966e-15,
    -1.4796744679950576e-15,
    -1.0371135023912626e-15,
    -7.7205934428253425e-16,
    -5.7339945427038709e-16,
    -3.9448699266039413e-16,
    -3.1751560170911614e-16,
    -2.4163769344300579e-16,
    -1.7565128694240227e-16,
    -1.2596864002931279e-16,
    -1.0532909735446566e-16,
    -8.3613942294608289e-17,
    -6.8579295069288292e-17,
    -4.9087368214570952e-17,
    -4.0738102220892513e-17,
    -3.8894116270607173e-17,
    -3.8484747261260017e-17,
    -1.9012163604741268e-17,
    -1.7483999167239996e-17,
    -1.7996013250828352e-17,
    2.3145636898232821e-08,
    2.6405484762092585e-09,
    3.3116565572000286e-10,
    4.7346716022433650e-11,
    8.0174494115498886e-12,
    1.6501826441888846e-12,
    4.1341651952635912e-13,
    1.2321998005474312e-13,
    4.2516213287855589e-14,
    1.6525051643907901e-14,
    6.9918942439304909e-15,
    3.1542586772718590e-15,
    1.5806797983032788e-15,
    7.9827972282846391e-16,
    4.3582974873882926e-16,
    2.8506510774251966e-16,
    1.4489772288746413e-16,
    5.2769789263139671e-17,
    7.1988817127079051e-17,
    7.1550421954739133e-18,
    1.5868822781489797e-17,
    2.3694988450669282e-17,
    -1.5598208477576259e-17,
    3.6435509878918591e-17,
    -1.3638960917242255e-18,
    -9.5580972142261011e-18,
    -2.1616670596613237e-17,
    -2.7908453162602942e-17,
    -5.9683984728130318e-17,
    -4.4819141014159797e-17,
    -4.0630031589578261e-17,
    -2.4585309510544724e-17,
    -6.9845551840083584e-18,
    -6.0208976477722581e-17,
    -3.4243534017218818e-17,
    -2.5659648297081464e-17,
    -2.5619056151494432e-17,
    -4.3246871908422153e-17,
    -5.3167592289892376e-17,
    -3.4370722740058179e-17,
    -1.4147100111284100e-09,
    -1.5563440823420287e-10,
    -1.8499370506831703e-11,
    -2.4479339818397856e-12,
    -3.7344728762991293e-13,
    -6.7735994858193700e-14,
    -1.4801062132257711e-14,
    -3.8675425506215231e-15,
    -1.1909817932218720e-15,
    -4.1269538034854397e-16,
    -1.8101277422471820e-16,
    -6.6673754367411401e-17,
    -9.5144646613299332e-17,
    -3.7446456120281827e-17,
    -7.2065164105089794e-18,
    -2.6058584503598460e-17,
    -2.2632451546315551e-17,
    -9.0709207939066748e-18,
    -1.4623798542468301e-17,
    -1.8426858551312238e-17,
    -2.2144317705914402e-17,
    -2.8002852139660168e-17,
    -7.7706003665884922e-18,
    -2.0882472493289769e-17,
    -2.6039051928649784e-17,
    8.1950416646718856e-18,
    -7.9028299908084008e-19,
    -6.6784193159496115e-19,
    2.7436882298663001e-18,
    1.2478120568794706e-17,
    -7.1661778730729664e-20,
    9.6430824221102878e-18,
    -1.8811046911163582e-18,
    7.3723765000696949e-18,
    5.9171576296247545e-18,
    -3.5622139288946897e-20,
    -4.9132917554642782e-18,
    -2.3321114133338977e-18,
    9.5049948019818805e-18,
    4.0107093813778684e-18,
    7.8917891482068713e-11,
    8.4304190795858495e-12,
    9.6026444127230965e-13,
    1.1949654022169371e-13,
    1.6581001273729430e-14,
    2.6033968959392618e-15,
    5.8817941879844881e-16,
    1.4329623387015349e-16,
    9.2680393283200754e-17,
    1.5051239653392775e-16,
    7.2215680290654501e-17,
    -1.9621476007116455e-18,
    -3.7917556444826658e-16,
    7.1026499926587168e-18,
    -1.0081006268119106e-16,
    -6.9196783775510315e-17,
    -4.7645592359429418e-17,
    -5.3932032193114415e-17,
    -5.4680675285947925e-17,
    -4.1459151783631928e-17,
    2.9513294490043068e-18,
    -2.2799830798351951e-17,
    -6.1610353589287712e-17,
    -1.4659350669779634e-17,
    -2.0717413819910728e-17,
    -1.4395839111832804e-17,
    -1.1229646392502635e-18,
    -4.6730734283890929e-17,
    -3.1413280389905685e-17,
    -3.6148380385011492e-17,
    -2.0940385138173384e-17,
    -2.5297109562894023e-17,
    -4.3526704007522247e-17,
    -1.6982306403679979e-17,
    -2.1467408254067011e-17,
    -4.1792933090364500e-17,
    -3.9345653954766154e-17,
    -1.0654650659649462e-17,
    -2.5721430738254532e-17,
    2.5060624831403294e-18,
    -4.0475280483314122e-12,
    -4.2207051188413776e-13,
    -4.6555466767253723e-14,
    -5.4973753546989031e-15,
    -7.5034270124774937e-16,
    -1.1638566252622928e-16,
    -1.8998298685067597e-17,
    -3.1648721619456345e-17,
    -5.1063285899451026e-18,
    1.4355856232080015e-17,
    -1.9094320222896825e-17,
    4.0375588855801214e-18,
    2.0757307759096814e-16,
    -8.2820941916440655e-18,
    -1.1105705830762959e-17,
    -1.2117317742739738e-17,
    -1.5632132488743308e-17,
    -8.1418710579249840e-18,
    -9.9267018638586379e-18,
    -1.2941493641479605e-17,
    -1.5287402345801794e-17,
    -2.5370802896062178e-17,
    -9.1532491858900810e-18,
    -1.3704655416530643e-17,
    -2.0272934075893696e-17,
    6.5589366333092043e-18,
    -5.4925142395240614e-18,
    -4.3029559529230654e-18,
    7.5372752861144691e-18,
    1.3661057212399190e-17,
    5.8246173140041373e-18,
    5.1070156632165100e-18,
    2.2459272932514006e-18,
    9.5660537636703364e-18,
    6.6091998208440233e-18,
    2.5649452368459227e-18,
    -3.4695436713046071e-18,
    9.2012619325440885e-18,
    7.8531332711852862e-18,
    2.1056997311095034e-18,
    1.9162202907895746e-13,
    1.9695146642423331e-14,
    2.1930137473613279e-15,
    4.8763397046498151e-16,
    7.3451797185577620e-17,
    2.7827231992639437e-17,
    -5.6669603136266723e-18,
    1.5625313394528026e-17,
    -1.1189884261016084e-16,
    -7.3945867570233806e-17,
    -3.3394298294067759e-17,
    -6.0145644776949995e-17,
    4.0034752754948420e-16,
    3.8033295225410943e-17,
    -2.0939944827293282e-17,
    2.2314162454561499e-17,
    9.4089360138108673e-19,
    7.3800076309187960e-18,
    2.0896072457071064e-17,
    2.7579184360998491e-17,
    1.1594117530648219e-17,
    2.2538586502236685e-17,
    9.4848689622723967e-18,
    4.2186996246142082e-17,
    1.4957103448066630e-17,
    -3.5317258028884818e-18,
    5.1325610963430119e-17,
    3.3065592997172343e-17,
    5.2139274691166776e-17,
    4.0607590918142436e-17,
    3.5873930911050658e-17,
    2.3947227066140892e-17,
    1.5234174340008540e-17,
    4.0627670964513371e-17,
    3.0075184746871827e-17,
    4.1501574831362843e-18,
    4.2032430511051676e-17,
    1.4206042217839425e-17,
    3.3107777968539858e-17,
    3.8908549011344333e-17,
    -8.5563390727582631e-15,
    -8.8476934793001626e-16,
    -3.2507982472272642e-16,
    -2.7254169839118055e-17,
    -1.6558758309089588e-17,
    1.4894186165648957e-17,
    6.2863542159183272e-18,
    -1.3596748867562116e-17,
    -4.4875845497055680e-19,
    3.9631643983113544e-18,
    -5.9062767258164938e-18,
    -1.7189359465370232e-17,
    2.5763742315307729e-16,
    -1.4012895723622335e-17,
    -7.4237259962273772e-18,
    -2.2958348126715123e-18,
    -8.8732022292379860e-18,
    3.9345927917058895e-19,
    -6.6790961550954125e-18,
    -1.2414866203487083e-17,
    -1.2905824419450105e-17,
    -1.4166140851394898e-17,
    7.3175518197972638e-20,
    -1.0308764674418708e-17,
    -1.2959733027496950e-17,
    3.3282750565603664e-18,
    -1.5877597535595160e-17,
    -1.6594726319654228e-17,
    -1.0281288860119804e-17,
    -5.0999271708632230e-18,
    -1.0078049750259284e-17,
    -1.0799365902109430e-17,
    -9.0935167941957913e-18,
    -1.2716803290221858e-17,
    -1.2252758358999034e-17,
    -8.8852022912867507e-18,
    -1.7981798517924944e-17,
    -5.7435809042529791e-18,
    -1.3714524004016520e-17,
    -7.1571671530659847e-18,
    9.2852985029663368e-02,
    6.0779044737405474e-02,
    4.2420770195014383e-02,
    3.1411904067348742e-02,
    2.4570620181302311e-02,
    2.0095957616566143e-02,
    1.6988467559461120e-02,
    1.4712937069384206e-02,
    1.2975644226084574e-02,
    1.1605774562288266e-02,
    1.0497818637877408e-02,
    9.5831535091737436e-03,
    8.8152191132853403e-03,
    8.1613070394816935e-03,
    7.5977633713954036e-03,
    7.1070568603899065e-03,
    6.6759174661496822e-03,
    6.2941153479415838e-03,
    5.9536370848516399e-03,
    5.6481160650529005e-03,
    5.3724300017681309e-03,
    5.1224110200265424e-03,
    4.8946332092443994e-03,
    4.6862545170549864e-03,
    4.4948974278317859e-03,
    4.3185577599716349e-03,
    4.1555341420509489e-03,
    4.0043728961042845e-03,
    3.8638245384703118e-03,
    3.7328091378763216e-03,
    3.6103884954686158e-03,
    3.4957436290721984e-03,
    3.3881564180117327e-03,
    3.2869945382533543e-03,
    3.1916990196389295e-03,
    3.1017739077232520e-03,
    3.0167776262552473e-03,
    2.9363157225996855e-03,
    2.8600347444683811e-03,
    2.7876170473341570e-03,
    -2.1021116967846976e-02,
    -1.1727190690732090e-02,
    -6.9310235590877567e-03,
    -4.2334146683508369e-03,
    -2.6986225672811178e-03,
    -1.8256593514458467e-03,
    -1.3081639100429904e-03,
    -9.8189187086107979e-04,
    -7.6392807716347969e-04,
    -6.1125318286388871e-04,
    -5.0017977069343595e-04,
    -4.1685593706221254e-04,
    -3.5274992039520571e-04,
    -3.0237436153312180e-04,
    -2.6206976777139613e-04,
    -2.2931957074527606e-04,
    -2.0234699242374068e-04,
    -1.7986858245247920e-04,
    -1.6093850556320990e-04,
    -1.4484730066809047e-04,
    -1.3105437152853132e-04,
    -1.1914194882459783e-04,
    -1.0878305853775891e-04,
    -9.9718829710741894e-05,
    -9.1742154057014870e-05,
    -8.4685743648515549e-05,
    -7.8413283942571356e-05,
    -7.2812798013185460e-05,
    -6.7791612157628477e-05,
    -6.3272495947971466e-05,
    -5.9190673713074397e-05,
    -5.5491489639177580e-05,
    -5.2128568067220182e-05,
    -4.9062352491482779e-05,
    -4.6258936714260713e-05,
    -4.3689123243580314e-05,
    -4.1327659807907427e-05,
    -3.9152616494963153e-05,
    -3.7144874672681216e-05,
    -3.5287705338751255e-05,
    1.6136031105937934e-03,
    8.0119694300436763e-04,
    4.3834465739619723e-04,
    2.5089451086176076e-04,
    1.4174793990990247e-04,
    8.1982023441767139e-05,
    5.0246843594188638e-05,
    3.2750320749878050e-05,
    2.2486259708344932e-05,
    1.6096592973110646e-05,
    1.1915783854128101e-05,
    9.0663706226583662e-06,
    7.0578225075603699e-06,
    5.6014467928597289e-06,
    4.5197882457391793e-06,
    3.6996654563366740e-06,
    3.0665676703344211e-06,
    2.5700757902498525e-06,
    2.1752419742616243e-06,
    1.8573220051835972e-06,
    1.5984618032372758e-06,
    1.3855588622529183e-06,
    1.2088499095815092e-06,
    1.0609586998221146e-06,
    9.3624192389359219e-07,
    8.3033220532369581e-07,
    7.3981381074952136e-07,
    6.6198924176989071e-07,
    5.9470902899107337e-07,
    5.3624610790762080e-07,
    4.8520205775676346e-07,
    4.4043639195529655e-07,
    4.0101271510131876e-07,
    3.6615735195123723e-07,
    3.3522729003670520e-07,
    3.0768514188622572e-07,
    2.8307944383117571e-07,
    2.6102904510746612e-07,
    2.4121065611649935e-07,
    2.2334885440274071e-07,
    -9.5606165905963236e-05,
    -4.3838776414670616e-05,
    -2.0437070970570703e-05,
    -1.1811458433633027e-05,
    -6.6970521145430154e-06,
    -3.5533350182292411e-06,
    -1.9122524196903884e-06,
    -1.0901985626131401e-06,
    -6.6163991856411537e-07,
    -4.2385766757233089e-07,
    -2.8386706121884123e-07,
    -1.9718794205572808e-07,
    -1.4121292849664423e-07,
    -1.0376609065280198e-07,
    -7.7950562161371682e-08,
    -5.9687554966823703e-08,
    -4.6473817887247591e-08,
    -3.6722864425316604e-08,
    -2.9400531774635912e-08,
    -2.3815735710172422e-08,
    -1.9496336571754177e-08,
    -1.6113328510825700e-08,
    -1.3433324301206087e-08,
    -1.1288072332201612e-08,
    -9.5544839666765256e-09,
    -8.1412944079934527e-09,
    -6.9799968450666387e-09,
    -6.0185814615784794e-09,
    -5.2171473420996752e-09,
    -4.5447849650426323e-09,
    -3.9773332878427563e-09,
    -3.4957471250010257e-09,
    -3.0848957423187775e-09,
    -2.7326697481193136e-09,
    -2.4293108315585439e-09,
    -2.1669042438161551e-09,
    -1.9389912696891673e-09,
    -1.7402709827954445e-09,
    -1.5663690121179316e-09,
    -1.4136569745644815e-09,
    3.8266155655434720e-06,
    2.3151936393413816e-06,
    8.0543536025979040e-07,
    3.8583007726453111e-07,
    2.5664634776701178e-07,
    1.4164545154988340e-07,
    7.0855779000653474e-08,
    3.6038966605113924e-08,
    1.9438435843656917e-08,
    1.1157785204249861e-08,
    6.7621544492682819e-09,
    4.2886801390873323e-09,
    2.8253850575407538e-09,
    1.9222533131823223e-09,
    1.3443749306894780e-09,
    9.6295307006915612e-10,
    7.0431047797610182e-10,
    5.2471945790487496e-10,
    3.9737706393787681e-10,
    3.0538014937881743e-10,
    2.3779557345267970e-10,
    1.8738962434377869e-10,
    1.4927759030628789e-10,
    1.2009946796859858e-10,
    9.7504886897766108e-11,
    7.9824284256244404e-11,
    6.5854890796556683e-11,
    5.4718902326402444e-11,
    4.5767975070844053e-11,
    3.8517895364369680e-11,
    3.2603285424433874e-11,
    2.7745774457492576e-11,
    2.3731373734907254e-11,
    2.0394196684928203e-11,
    1.7604629096274539e-11,
    1.5260648866857678e-11,
    1.3281388817349293e-11,
    1.1602324510572005e-11,
    1.0171656573324644e-11,
    8.9475564613815499e-12,
    1.1357776495190985e-08,
    -1.0170767706413513e-07,
    -4.3346555202383711e-08,
    -7.9042745316451946e-09,
    -6.3369596941126242e-09,
    -4.7409691262064609e-09,
    -2.4654900197683005e-09,
    -1.1684983533612500e-09,
    -5.6822337844306368e-10,
    -2.9339248359523878e-10,
    -1.6104929489896021e-10,
    -9.3271646386574095e-11,
    -5.6529868442724957e-11,
    -3.5609455000121837e-11,
    -2.3185766497280406e-11,
    -1.5535544311158659e-11,
    -1.0673822455040543e-11,
    -7.4975246452726685e-12,
    -5.3709418852130698e-12,
    -3.9157743449672656e-12,
    -2.9003781887227183e-12,
    -2.1792446103333084e-12,
    -1.6588442697001557e-12,
    -1.2777978895207054e-12,
    -9.9505152144256090e-13,
    -7.8266671291894765e-13,
    -6.2132739215905042e-13,
    -4.9748599266563300e-13,
    -4.0150482763456466e-13,
    -3.2644676266241436e-13,
    -2.6725825794776394e-13,
    -2.2021861371410414e-13,
    -1.8256048236634020e-13,
    -1.5220441767868304e-13,
    -1.2757709554880311e-13,
    -1.0747513286020292e-13,
    -9.0973608774291499e-14,
    -7.7352182469628591e-14,
    -6.6052914769713041e-14,
    -5.6632297402319425e-14,
    -1.5240662275428782e-08,
    1.0763435689054612e-09,
    2.6384457707480588e-09,
    3.9047852873261320e-10,
    6.2887089394766369e-13,
    1.0517574281881089e-10,
    7.5058087169450506e-11,
    3.6207067207751675e-11,
    1.6385684443810556e-11,
    7.6876696497424951e-12,
    3.8325622049771801e-12,
    2.0281835877731263e-12,
    1.1310351522967865e-12,
    6.5966150792179836e-13,
    3.9988071286086160e-13,
    2.5064657629590176e-13,
    1.6176573963905906e-13,
    1.0713494104542859e-13,
    7.2597795461802608e-14,
    5.0216452679047985e-14,
    3.5381605146969007e-14,
    2.5350458735405538e-14,
    1.8439878008701718e-14,
    1.3597197305249147e-14,
    1.0157269786460949e-14,
    7.6750427323621427e-15,
    5.8596497656751400e-15,
    4.5239011703438540e-15,
    3.5212910091294560e-15,
    2.7658753415862328e-15,
    2.1893792271163807e-15,
    1.7470797257442266e-15,
    1.4042540158810675e-15,
    1.1363325957050131e-15,
    9.2461269499531472e-16,
    7.5694090251954360e-16,
    6.2341946010469681e-16,
    5.1613782128136387e-16,
    4.2907300259860765e-16,
    3.5859257222504411e-16,
    1.2376313909187904e-09,
    1.9225481583234765e-10,
    -5.9837670235905212e-11,
    -5.1616578158676158e-11,
    5.4037255304329383e-12,
    4.8961495138430665e-13,
    -1.6746928650219675e-12,
    -1.0187762602612444e-12,
    -4.5774620264446600e-13,
    -1.9955889144421887e-13,
    -9.0987977971668379e-14,
    -4.4078659814029230e-14,
    -2.2636051830885157e-14,
    -1.2220022664089507e-14,
    -6.8941697332913918e-15,
    -4.0463705835796625e-15,
    -2.4545385144635656e-15,
    -1.5332870513977356e-15,
    -9.8223345111686528e-16,
    -6.4461397356554323e-16,
    -4.3258949439129026e-16,
    -2.9587386603275240e-16,
    -2.0472693771699580e-16,
    -1.4471784416199016e-16,
    -1.0389887877061133e-16,
    -7.5523035232700003e-17,
    -5.4718661681091487e-17,
    -4.1179816149917168e-17,
    -3.1038678444013210e-17,
    -2.3661298092809840e-17,
    -1.8099575139747619e-17,
    -1.3800863838227919e-17,
    -1.1190281200580641e-17,
    -8.7835157280847221e-18,
    -6.9407107185474032e-18,
    -5.6482567517414792e-18,
    -4.8627607319411507e-18,
    -3.5793440406235386e-18,
    -2.9571712537569467e-18,
    -2.5845222072242731e-18,
    -5.6291151614562579e-11,
    -1.1247038581268420e-11,
    -5.2918365608628676e-12,
    3.3445656319000293e-12,
    2.0695795016911455e-13,
    -1.7618827032208943e-13,
    5.1010255059093705e-15,
    2.3149061978526174e-14,
    1.1946844854730369e-14,
    5.0645548161709375e-15,
    2.1399056104121160e-15,
    9.5717091137129305e-16,
    4.4811157892194437e-16,
    2.2558408374232425e-16,
    1.1568220263695871e-16,
    6.3671486496296499e-17,
    3.8948163690755783e-17,
    2.2768134459765417e-17,
    1.2520647306319562e-17,
    1.0454507095939709e-17,
    4.3007378249458831e-18,
    3.5859777947342540e-18,
    1.7288871341276082e-18,
    -7.0461199381487137e-19,
    4.8338480036555509e-19,
    1.4833046533260706e-18,
    -1.0449094809861400e-18,
    -6.4812125787291818e-19,
    -8.1962307297812149e-19,
    -1.6263919665203500e-18,
    -2.3499469616091664e-18,
    -1.2828809344901055e-18,
    -1.2307876809867499e-18,
    -6.1243399654432063e-19,
    -5.1670418653490735e-19,
    -7.0511939563470663e-19,
    -1.2448257980022647e-19,
    -7.7141990009352289e-19,
    -2.2900735468682967e-19,
    -6.4372377543432326e-19,
    3.8991742474838598e-13,
    5.5860580702013149e-13,
    3.0844717933282314e-13,
    -2.1170118983141522e-14,
    -5.2022008356602288e-14,
    7.2464492329407167e-15,
    1.9874055413484521e-15,
    -2.5508816836497741e-16,
    -2.7209177292842782e-16,
    -1.2255605532571449e-16,
    -4.5457160709492546e-17,
    -2.3359540216893724e-17,
    -1.2579028912180156e-17,
    -6.6538435797275481e-18,
    -1.4047765029334919e-18,
    -4.6410757457648752e-18,
    1.4679452717377186e-18,
    -2.0039615190804027e-18,
    -1.3314472473970854e-18,
    -9.7578838822369224e-19,
    -1.6933840022533655e-18,
    -1.2531294465098106e-18,
    2.5792922562205246e-19,
    -2.0938915306546698e-19,
    -4.5440867603313614e-19,
    -3.5739752906645581e-19,
    1.0923887556644142e-18,
    2.0611844897238937e-19,
    4.3837377496134344e-19,
    -2.5460850586944837e-19,
    -4.7684387659108188e-19,
    -2.7247154104795835e-19,
    1.0403781476273250e-19,
    -2.0895973809027893e-19,
    -1.3418168202629595e-19,
    -7.0914206286614193e-19,
    -4.8006215936035682e-19,
    2.4563835945443969e-19,
    -3.2077010708196718e-20,
    4.4493038080304118e-20,
    2.0390553542896899e-13,
    -5.4183597893767439e-14,
    1.4444790099910031e-14,
    -1.1762728922887691e-14,
    3.3960666890697289e-15,
    6.8799489426605638e-17,
    -1.1213700564893506e-16,
    -5.3891491953430044e-18,
    9.4093896306853907e-18,
    5.1283403200418010e-18,
    2.2432265958549114e-18,
    3.6202434037923542e-18,
    -2.4645763045302383e-17,
    -1.1418834177695235e-18,
    -3.2709216718474930e-18,
    -2.5236299203367869e-18,
    -1.7658652735743489e-18,
    -7.5506196411682987e-19,
    -3.8242959435358007e-19,
    -6.1181978389958783e-19,
    5.2803662188572933e-19,
    -7.0050155820861146e-19,
    -1.8050541719356696e-18,
    -2.2180578637176941e-18,
    -1.6442445545219737e-18,
    1.1526941483519555e-18,
    -4.7803699294197435e-19,
    -6.7786659105164066e-19,
    -7.8572052037794831e-19,
    -8.6215576394905911e-19,
    -2.2735473167853370e-18,
    -1.1803966454694406e-18,
    1.9509990347985174e-19,
    -3.9019980695970347e-19,
    -2.8868029008404036e-19,
    -4.4898315450168477e-19,
    4.7761469877859812e-19,
    -5.8698888709306047e-20,
    -6.2284166156370851e-19,
    -4.4353555979413050e-19,
    -1.8603936390444271e-14,
    1.6164653435885676e-15,
    -1.1578380489218134e-15,
    6.8347688608195812e-16,
    -6.3793704182910184e-17,
    -2.6182646968944859e-17,
    7.8333883541333267e-18,
    -4.3730517739722760e-18,
    -6.5956180207156351e-19,
    1.9809975393881684e-18,
    -1.6596119056408964e-18,
    -3.2357754370135356e-18,
    1.1309507159378651e-17,
    -1.4115545409095898e-18,
    6.3803484795962996e-19,
    -2.7288941734975959e-18,
    3.3439284422993058e-19,
    -1.0871807343418778e-18,
    -4.4130942424512990e-19,
    -5.3502586210450015e-19,
    -1.6338732943629408e-18,
    -8.6947431673289126e-19,
    -4.8520199419144605e-19,
    -3.6013068744825017e-19,
    -1.4563167397653745e-19,
    -2.8743604324861668e-19,
    7.9840148159076055e-19,
    -8.1820633531400125e-20,
    -2.0820858541481002e-19,
    -1.8541089960483118e-19,
    -1.4970114268238483e-19,
    4.9309378944816531e-19,
    1.9759279176514664e-19,
    -1.4254291358283101e-19,
    -6.0574247023063320e-20,
    -3.4053384523148245e-19,
    -2.3833143771088570e-19,
    2.4113446199816271e-19,
    1.3734519375733483e-19,
    -2.7784251893142800e-19,
    7.4943187789316284e-16,
    1.4678750132995191e-16,
    -7.2053281014801770e-17,
    1.4006760413099194e-17,
    -9.9043563175509632e-18,
    1.1423690246323433e-17,
    1.2535348611800209e-17,
    -4.0922797024200182e-18,
    -2.8044568965124819e-18,
    -6.2823546759359935e-18,
    -2.4224297958082545e-18,
    -3.8756176894764549e-18,
    1.7470230932315022e-17,
    3.1048138926492103e-18,
    -2.7361172428971166e-19,
    3.6579432372200856e-18,
    9.2532734694647314e-19,
    2.2218824419270910e-18,
    -4.8343977187173844e-20,
    1.7605475950519312e-18,
    8.3298444462297968e-19,
    -3.5148518143414702e-19,
    5.8286974938497472e-19,
    2.1415200714719724e-18,
    1.2721089040731421e-18,
    1.4664550671632924e-18,
    1.1412511228911108e-18,
    8.3258368739499173e-19,
    1.4160862113504815e-18,
    8.5165129445310923e-19,
    8.9301365887895919e-19,
    2.2837677949232470e-18,
    3.1338687916785998e-18,
    6.7213314879864225e-19,
    1.3482949623628822e-18,
    2.1711655601005032e-18,
    2.4551758798323087e-18,
    8.4575594470449870e-19,
    9.4104124878087686e-20,
    1.0078516971841813e-18,
    -9.0956898739058663e-18,
    -8.5673876779855295e-18,
    -2.2919876486875232e-17,
    2.2107709750583518e-18,
    -9.4452188346555227e-20,
    -1.9590633914990753e-18,
    2.9132292999801859e-18,
    -6.0152542916717070e-18,
    6.5148889794114546e-19,
    -1.2881407676289027e-18,
    -8.2415495193447184e-19,
    -3.8561086665643258e-18,
    1.3864861740361459e-17,
    5.0026300198937692e-19,
    1.1684102338489320e-18,
    -4.4302651263324043e-18,
    -2.2297453654061019e-18,
    -9.0799795272208021e-19,
    -5.9850206363786367e-19,
    -2.8881725776238776e-19,
    -5.6007913570938892e-19,
    -5.3783061804688466e-19,
    -2.8932782797465771e-19,
    -2.5634175842846563e-19,
    -4.8966705427522872e-19,
    -6.9755061234187396e-20,
    1.1412323086617783e-19,
    -5.5673327628818342e-19,
    -3.7809298787270893e-19,
    -5.8405084342686344e-19,
    -8.9569365519693410e-19,
    -4.5070470698714809e-19,
    -8.2837501645975827e-19,
    -5.8643173762662437e-19,
    -4.5499332573574687e-19,
    -2.4337917290202778e-19,
    -6.8993233667696117e-19,
    -3.9042207951891548e-19,
    -4.1654988227432828e-19,
    -3.2685885121190920e-19,
    5.3998329830187375e-01,
    3.9591869744543073e-01,
    3.1959375819745961e-01,
    2.7236571645906893e-01,
    2.4042202259702231e-01,
    2.1739196332790967e-01,
    1.9989505468309851e-01,
    1.8604202619986249e-01,
    1.7472386021087860e-01,
    1.6525079931858191e-01,
    1.5717002211245312e-01,
    1.5017051479483254e-01,
    1.4403064376292851e-01,
    1.3858761213498585e-01,
    1.3371877888988035e-01,
    1.2932975391432616e-01,
    1.2534654267282433e-01,
    1.2171020651962991e-01,
    1.1837313849522926e-01,
    1.1529640686274557e-01,
    1.1244782238705946e-01,
    1.0980050724194917e-01,
    1.0733181856296130e-01,
    1.0502252722790427e-01,
    1.0285618328362379e-01,
    1.0081861986227450e-01,
    9.8897561222785910e-02,
    9.7082310032439709e-02,
    9.5363495623793093e-02,
    9.3732869654438125e-02,
    9.2183138968167627e-02,
    9.0707827908530728e-02,
    8.9301164140657613e-02,
    8.7957983379960900e-02,
    8.6673649435300801e-02,
    8.5443986739526245e-02,
    8.4265223125925853e-02,
    8.3133941060939215e-02,
    8.2047035894770928e-02,
    8.1001679966673207e-02,
    -1.0056030477856338e-01,
    -4.9060092415299253e-02,
    -2.8911928363544250e-02,
    -1.8946654225004109e-02,
    -1.3305873225586781e-02,
    -9.8911864078527617e-03,
    -7.6994586074556224e-03,
    -6.2089812074883387e-03,
    -5.1439267224355966e-03,
    -4.3520961462296887e-03,
    -3.7445326636322985e-03,
    -3.2663138214202828e-03,
    -2.8819102734397740e-03,
    -2.5674281357435584e-03,
    -2.3062676963734020e-03,
    -2.0865746034236339e-03,
    -1.8996807779121561e-03,
    -1.7391166078892081e-03,
    -1.5999657692955293e-03,
    -1.4784324879535307e-03,
    -1.3715444173584088e-03,
    -1.2769443466173862e-03,
    -1.1927414416534859e-03,
    -1.1174032125698648e-03,
    -1.0496758616459752e-03,
    -9.8852474314250040e-04,
    -9.3308929444707687e-04,
    -8.8264852633544624e-04,
    -8.3659431711054016e-04,
    -7.9441054280046273e-04,
    -7.5565661968002458e-04,
    -7.1995441662532742e-04,
    -6.8697776543866489e-04,
    -6.5644399171598401e-04,
    -6.2810703009531126e-04,
    -6.0175179144780213e-04,
    -5.7718952647482324e-04,
    -5.5425398772209096e-04,
    -5.3279823545872491e-04,
    -5.1269196592153700e-04,
    1.0473078829075578e-02,
    3.6761542197212703e-03,
    1.6720241332571044e-03,
    9.0848524781782279e-04,
    5.3611045536908783e-04,
    3.3494017751654957e-04,
    2.2205332521539926e-04,
    1.5535800327021445e-04,
    1.1356615344253991e-04,
    8.5958121036458585e-05,
    6.6906127597451972e-05,
    5.3281352718902975e-05,
    4.3246680317885318e-05,
    3.5671471237055573e-05,
    2.9831667319483918e-05,
    2.5247665373858875e-05,
    2.1592446260820339e-05,
    1.8637355076069612e-05,
    1.6218955093518247e-05,
    1.4218131753061723e-05,
    1.2546557552597661e-05,
    1.1137711430814088e-05,
    9.9407905688109225e-06,
    8.9165024426936440e-06,
    8.0341051209139805e-06,
    7.2692921734934961e-06,
    6.6026590693789888e-06,
    6.0185763059326826e-06,
    5.5043512051871647e-06,
    5.0495973442232453e-06,
    4.6457551976224638e-06,
    4.2857241720212371e-06,
    3.9635775802098711e-06,
    3.6743399879332804e-06,
    3.4138119019064787e-06,
    3.1784307092965257e-06,
    2.9651595987089833e-06,
    2.7713982499179315e-06,
    2.5949105812345613e-06,
    2.4337659524862016e-06,
    -1.0281472962563435e-03,
    -2.7615529752655649e-04,
    -9.4167783955896790e-05,
    -4.2133134655064047e-05,
    -2.2259031374350175e-05,
    -1.2273964528065877e-05,
    -7.0663864246982911e-06,
    -4.3127202483498619e-06,
    -2.7850539098747307e-06,
    -1.8862825791856407e-06,
    -1.3282611985674842e-06,
    -9.6570693471349405e-07,
    -7.2107245393019569e-07,
    -5.5067850503330166e-07,
    -4.2874605443835877e-07,
    -3.3944050836827734e-07,
    -2.7269581863227507e-07,
    -2.2191951750955026e-07,
    -1.8267995209367060e-07,
    -1.5192861333987727e-07,
    -1.2752502988055668e-07,
    -1.0793846062393753e-07,
    -9.2055960265155446e-08,
    -7.9056141957708269e-08,
    -6.8324483568145048e-08,
    -5.9395470354404972e-08,
    -5.1912413958465979e-08,
    -4.5599122409950767e-08,
    -4.0239646493393146e-08,
    -3.5663613056037364e-08,
    -3.1735477281317558e-08,
    -2.8346559427445867e-08,
    -2.5409083496742782e-08,
    -2.2851672297074353e-08,
    -2.0615911328093341e-08,
    -1.8653706787830799e-08,
    -1.6925237538382969e-08,
    -1.5397355566706976e-08,
    -1.4042328399877911e-08,
    -1.2836843276756881e-08,
    9.2164181872583339e-05,
    2.0484475524291688e-05,
    5.5230385873949323e-06,
    1.8055057759992240e-06,
    8.4745905047525117e-07,
    4.4255858460626437e-07,
    2.3103298787795061e-07,
    1.2498695815078826e-07,
    7.1623508356972714e-08,
    4.3451778928097884e-08,
    2.7686617751086480e-08,
    1.8378077717723255e-08,
    1.2623867593977257e-08,
    8.9261302530905479e-09,
    6.4700995066601180e-09,
    4.7917534979640397e-09,
    3.6161261841902541e-09,
    2.7745674244697535e-09,
    2.1604665839375019e-09,
    1.7046111094474009e-09,
    1.3609903283119521e-09,
    1.0983614612563178e-09,
    8.9510038258269887e-10,
    7.3597929890739673e-10,
    6.1010439379883783e-10,
    5.0956953996882340e-10,
    4.2856096918324951e-10,
    3.6275071821454519e-10,
    3.0888107981676598e-10,
    2.6447404317256601e-10,
    2.2762653556086438e-10,
    1.9686376045551146e-10,
    1.7103296987227142e-10,
    1.4922650111614446e-10,
    1.3072386914838006e-10,
    1.1494942391327140e-10,
    1.0144036317709625e-10,
    8.9822003203383129e-11,
    7.9789419323168089e-11,
    7.1093061638472293e-11,
    -7.5431986888492576e-06,
    -1.4041377510703233e-06,
    -3.4540010251625817e-07,
    -8.2897399901827107e-08,
    -2.7818962445151280e-08,
    -1.4445947120631979e-08,
    -7.3682846366737654e-09,
    -3.6629760435727372e-09,
    -1.8861304707346590e-09,
    -1.0285048995289709e-09,
    -5.9347627636151908e-10,
    -3.5972683666981696e-10,
    -2.2731977287335357e-10,
    -1.4882016889368622e-10,
    -1.0042819969036818e-10,
    -6.9575990251613200e-11,
    -4.9322235310690759e-11,
    -3.5680364364871937e-11,
    -2.6280782327120016e-11,
    -1.9671854079744036e-11,
    -1.4939955239409998e-11,
    -1.1496050276848200e-11,
    -8.9521159779704909e-12,
    -7.0474124996269189e-12,
    -5.6036016168065694e-12,
    -4.4966447715446421e-12,
    -3.6390592906362610e-12,
    -2.9682139264995663e-12,
    -2.4387324599865102e-12,
    -2.0173243369515492e-12,
    -1.6793223963352202e-12,
    -1.4062859018094367e-12,
    -1.1841450602339514e-12,
    -1.0023261876505081e-12,
    -8.5259383281865079e-13,
    -7.2857805458326721e-13,
    -6.2535432902617464e-13,
    -5.3896356906711501e-13,
    -4.6633423370526978e-13,
    -4.0498619324728825e-13,
    5.7444254749585057e-07,
    8.8340749341773439e-08,
    1.9638016298005807e-08,
    4.8331238979927345e-09,
    8.7907109005668156e-10,
    3.8456955960324153e-10,
    2.1446706757058443e-10,
    1.0493899590544000e-10,
    4.9949690855029252e-11,
    2.4713210399547800e-11,
    1.2947332149744507e-11,
    7.1705644986796241e-12,
    4.1695707499865199e-12,
    2.5272491380714300e-12,
    1.5877663456690248e-12,
    1.0290495143483372e-12,
    6.8527976131340643e-13,
    4.6746828903059044e-13,
    3.2572387779260543e-13,
    2.3133520071396123e-13,
    1.6716997254362461e-13,
    1.2265101817156697e-13,
    9.1277642417681009e-14,
    6.8796454363965378e-14,
    5.2520339769364406e-14,
    4.0472952026374273e-14,
    3.1439092367016712e-14,
    2.4721084419012095e-14,
    1.9614581449117626e-14,
    1.5646183059029547e-14,
    1.2603413848313223e-14,
    1.0224882436137889e-14,
    8.3035907103394299e-15,
    6.8503142865549946e-15,
    5.6695844732770301e-15,
    4.6811454396981794e-15,
    3.9067544932851046e-15,
    3.2905053322746441e-15,
    2.7936014019268945e-15,
    2.3403910474163547e-15,
    -4.0922255480358730e-08,
    -5.4486306101497528e-09,
    -8.9496562559217107e-10,
    -2.8736428738229142e-10,
    -4.3210517569409782e-11,
    -7.3052453480298403e-12,
    -5.0773369812345565e-12,
    -2.7913543668983402e-12,
    -1.2996357969959491e-12,
    -5.9600175996652188e-13,
    -2.8545488740148090e-13,
    -1.4471463902279485e-13,
    -7.7647338962737286e-14,
    -4.3476537099228573e-14,
    -2.5449143446105620e-14,
    -1.5442745319368135e-14,
    -9.6582712584443651e-15,
    -6.2204109810054579e-15,
    -4.0925490912258354e-15,
    -2.7667737951760934e-15,
    -1.9196427002482392e-15,
    -1.3310726829953027e-15,
    -9.4172444630547076e-16,
    -6.7975621765731466e-16,
    -5.0919039716090432e-16,
    -3.7702337654942458e-16,
    -2.8098219972583295e-16,
    -2.1378306196098459e-16,
    -1.6561806806199118e-16,
    -1.2426558748838092e-16,
    -9.2584709445531876e-17,
    -9.8612245336428941e-17,
    -5.5027613763218531e-17,
    -4.6896578099410518e-17,
    -3.6300530743102834e-17,
    -2.2328942661453006e-17,
    -3.0028952438223158e-17,
    -2.3172197392803295e-17,
    -2.6805912381930286e-17,
    -2.4419198455020429e-17,
    2.7289457835625602e-09,
    3.2718393003013614e-10,
    3.9892267373461895e-11,
    1.1835734236950590e-11,
    3.1848848124675198e-12,
    1.4541613329718481e-13,
    6.9611199852894510e-14,
    6.2430503421409555e-14,
    3.1860049824925638e-14,
    1.4074584999110051e-14,
    6.2375622840575888e-15,
    2.8725058886092419e-15,
    1.4095649616526716e-15,
    7.1692223849989817e-16,
    4.1127961908779322e-16,
    2.3835707888704321e-16,
    9.8373711758648890e-17,
    9.0644967238878287e-17,
    6.9775192121066325e-17,
    2.5518928859046519e-17,
    4.2984376033626182e-17,
    2.5908613456682011e-17,
    5.6829003821842722e-18,
    -2.5535165717281330e-17,
    2.1595021452300235e-18,
    2.0899542691242406e-17,
    -7.2857489042641238e-17,
    -3.4327424451432015e-17,
    -4.4629711001420321e-17,
    -6.5147687524144598e-17,
    -5.1746867194346314e-17,
    -4.8737636134827791e-18,
    -4.5417198625808709e-17,
    -3.6083711283830863e-17,
    -1.6242270520890419e-17,
    -4.1385045497497026e-17,
    -1.8702154543464458e-17,
    -3.1997435294736469e-17,
    -1.9484229881774577e-19,
    -4.7035472163211655e-17,
    -1.7169756804468913e-10,
    -1.7712595057963804e-11,
    -2.6062377095003465e-12,
    -1.5627842471518950e-13,
    -1.9562869800712013e-13,
    -1.4522858164116293e-14,
    8.7847165209967474e-16,
    -8.8056736449186196e-16,
    -7.1039693629874394e-16,
    -3.4771047265986961e-16,
    -1.3105944291459145e-16,
    -5.5788484646767048e-17,
    -9.2749081542188738e-17,
    -2.5060934461394797e-17,
    -3.0959754350553129e-17,
    -3.6994353245804190e-17,
    -4.1887128652161722e-18,
    -1.8047972705004291e-17,
    -8.5232546127052738e-18,
    -1.5980138321234055e-17,
    -2.5830650765003082e-17,
    -1.1751160959615833e-17,
    -2.8268837356429378e-18,
    -6.0053785872149488e-18,
    -1.6190237250541207e-17,
    -7.5024033905906578e-18,
    3.0929160676292490e-18,
    5.9589374066333046e-19,
    4.2914144537807906e-19,
    1.0395362825465992e-18,
    9.0943329755561005e-18,
    -1.7146561780496126e-17,
    1.7737909674676385e-17,
    4.0750385303716309e-18,
    2.0861329948144992e-18,
    1.2281496468912323e-17,
    -2.7537682299696187e-18,
    2.4571524754734801e-18,
    3.1442547531885731e-18,
    -8.8258173956619591e-18,
    1.0176306404122852e-11,
    9.1178116864296962e-13,
    1.6190426874955053e-13,
    -7.2646812226282038e-15,
    6.8282952719376974e-15,
    1.4299353341384550e-15,
    -9.7620897159372741e-18,
    4.7199649722903822e-17,
    6.9523808375628602e-17,
    1.0118843825157577e-16,
    3.1070039693913326e-17,
    2.3934957509507345e-17,
    -3.1631657147670798e-16,
    -5.6518499484961593e-17,
    -2.4616033536200756e-17,
    -2.4440359164236213e-17,
    -3.9369978098576682e-17,
    -4.1691582491154248e-17,
    -3.1880844487595974e-17,
    -3.8972683749672258e-17,
    -3.8869981809139138e-17,
    -3.1921384727280098e-17,
    -5.9706313665456629e-17,
    -1.4837727724389784e-17,
    -2.1724163105399833e-17,
    3.0090317234880413e-17,
    -1.2068829353964023e-17,
    -9.2107424562332080e-18,
    -2.1753892614501494e-17,
    -6.2675210551657308e-18,
    -4.3272651838835062e-17,
    1.4474216908555443e-17,
    -1.2932336459235887e-17,
    -1.3036389741091808e-17,
    -9.8985751895405300e-18,
    -4.6284115976704152e-17,
    1.5721504949503688e-17,
    7.0648124356201899e-18,
    -2.1288355528795458e-17,
    -1.6620146929168460e-17,
    -5.6290582538596153e-13,
    -5.0648574624297397e-14,
    -4.5632705680764680e-15,
    -6.6283795259424424e-16,
    5.4846261966232714e-17,
    -1.0057525966515516e-16,
    1.6250137970175692e-17,
    -3.7257252959616416e-17,
    -8.1012053188060141e-18,
    7.8293236775033619e-19,
    9.8693840687441509e-19,
    4.3747294016428153e-18,
    1.8095445745650657e-16,
    7.3932071638804109e-18,
    -2.9433010395026208e-17,
    -2.2490983250190905e-17,
    -4.8080421075027706e-18,
    -1.3904578411961331e-17,
    -4.0018304714676209e-18,
    -1.2009892033721051e-17,
    -1.7268494135420800e-17,
    -1.0378562832497909e-17,
    -3.3203674218826607e-18,
    -7.9135719453278338e-18,
    -1.5506457144722906e-17,
    -4.4836158347142914e-18,
    1.5351520672765987e-18,
    -4.1772771140075162e-19,
    4.6752300827035953e-19,
    5.0023245284310334e-18,
    3.5156389673129755e-18,
    -1.1849788811213852e-17,
    9.2858323710559063e-18,
    4.5957124742771027e-18,
    7.8831339030427220e-18,
    9.8716571377659080e-18,
    -4.9856589081980300e-19,
    7.1811843964116537e-18,
    -3.1091467068292343e-18,
    -4.1599066063114951e-18,
    2.8938701369444515e-14,
    2.5075772919355402e-15,
    -4.8462095107002839e-17,
    3.2973123539934556e-16,
    5.5136095057114831e-17,
    2.6245126826472103e-17,
    3.4827912361021471e-19,
    -1.0425425083882501e-17,
    8.6475816505698955e-18,
    -4.8074668329963426e-17,
    -1.0103739366222369e-16,
    -8.0031977759368115e-17,
    3.7897695853447132e-16,
    1.6635052869180964e-17,
    2.7941300155217249e-17,
    4.1892038926340412e-17,
    8.2694693152086068e-17,
    3.3646733162731116e-18,
    4.2110725817909616e-18,
    6.3550815665736173e-18,
    1.9000111103929408e-18,
    1.6303647734117755e-17,
    -1.8415933620432038e-17,
    -5.0723209572301774e-19,
    1.6981644593936481e-17,
    1.8932615149741406e-19,
    5.4270121964882776e-17,
    -1.7346460226322832e-19,
    5.6905332756268798e-17,
    4.7961443866813401e-17,
    1.3331463391448071e-17,
    3.9528499350561358e-17,
    3.2818220325073225e-17,
    2.7772897749518240e-17,
    1.5218987750316234e-17,
    1.2388038691784929e-17,
    6.0258025540673557e-17,
    1.8433651308406470e-17,
    3.6162644855089940e-17,
    2.7633518604119965e-17,
    -1.5035277623558497e-15,
    -1.1830670878976960e-16,
    -1.9687139900699553e-16,
    -3.2452102535599000e-17,
    1.9595998437853813e-17,
    2.3432461910305729e-18,
    1.1074834866578329e-17,
    -2.3791147872375810e-17,
    -2.4527235031601153e-18,
    -1.0862553925573995e-17,
    5.5227376239568179e-18,
    -2.0705351229650443e-17,
    2.2607340772180789e-16,
    -1.3817127157084259e-18,
    -1.8219182582580889e-17,
    -1.2776932799009732e-17,
    -1.1693691342234908e-17,
    -9.4396435046940519e-18,
    -2.1630983062497767e-18,
    -1.1145423079687008e-17,
    -1.5522035563891723e-17,
    -5.1097109741493277e-18,
    7.9936891882288530e-19,
    -8.6351022540742775e-19,
    -9.0586619764308941e-18,
    -3.6335137484657092e-18,
    -7.3629682220069138e-18,
    -1.0455060154852579e-17,
    -8.9062698708063384e-18,
    -8.4945266250238184e-18,
    -5.7807488953098605e-18,
    -2.2271887488212820e-17,
    -8.2887620579394440e-18,
    -8.4606495226475703e-18,
    -8.9458835710532047e-18,
    1.1715467621808696e-18,
    -1.0843968111266329e-17,
    -1.0837507799790617e-17,
    -1.2310268367366957e-17,
    -1.1698265646702354e-17,
    6.8076280594676952e-01,
    5.4347311709947310e-01,
    4.1001787238652043e-01,
    3.0970812345760707e-01,
    2.4309557346029367e-01,
    1.9891722926198066e-01,
    1.6816736962808324e-01,
    1.4564296148516534e-01,
    1.2844562708625529e-01,
    1.1488532352421070e-01,
    1.0391769127150877e-01,
    9.4863439988460432e-02,
    8.7261673162677744e-02,
    8.0788610959194165e-02,
    7.5210103749626889e-02,
    7.0352610063752957e-02,
    6.6084770044749760e-02,
    6.2305318709061981e-02,
    5.8934931367453404e-02,
    5.5910585060056389e-02,
    5.3181574375143904e-02,
    5.0706641603881754e-02,
    4.8451873727682081e-02,
    4.6389137328469957e-02,
    4.4494897427831810e-02,
    4.2749314673192589e-02,
    4.1135547223732909e-02,
    3.9639205151094224e-02,
    3.8247919842145504e-02,
    3.6951001079372332e-02,
    3.5739161651568589e-02,
    3.4604294470984981e-02,
    3.3539290875788108e-02,
    3.2537891503338578e-02,
    3.1594563119507986e-02,
    3.0704396281417419e-02,
    2.9863019834816235e-02,
    2.9066529101160227e-02,
    2.8311425263499494e-02,
    2.7594563965175862e-02,
    -6.3167313950371645e-02,
    -7.1938665153399806e-02,
    -5.9786315883560842e-02,
    -4.0706781065399766e-02,
    -2.6584521425604961e-02,
    -1.8059680966900204e-02,
    -1.2948334946311446e-02,
    -9.7196235351738203e-03,
    -7.5620991301810986e-03,
    -6.0507819061421577e-03,
    -4.9512692184507049e-03,
    -4.1264483632885299e-03,
    -3.4918642249994261e-03,
    -2.9931976017323098e-03,
    -2.5942232549523020e-03,
    -2.2700297264460316e-03,
    -2.0030287269685956e-03,
    -1.7805154077949685e-03,
    -1.5931269650079280e-03,
    -1.4338404578530838e-03,
    -1.2973045352547197e-03,
    -1.1793837072850868e-03,
    -1.0768412648424505e-03,
    -9.8711464963132257e-04,
    -9.0815370097206488e-04,
    -8.3830243909659282e-04,
    -7.7621148914341583e-04,
    -7.2077239381921124e-04,
    -6.7106777804184191e-04,
    -6.2633313938954328e-04,
    -5.8592726482256945e-04,
    -5.4930911756173497e-04,
    -5.1601962590935564e-04,
    -4.8566722082681014e-04,
    -4.5791626555857215e-04,
    -4.3247773473057641e-04,
    -4.0910165662493198e-04,
    -3.8757094748988620e-04,
    -3.6769635237880201e-04,
    -3.4931227124101029e-04,
    -2.2661365679460515e-03,
    3.1453989853185631e-04,
    2.3716418563940432e-03,
    2.1751123766004820e-03,
    1.3678726523799060e-03,
    8.0804191590604590e-04,
    4.9706596094529186e-04,
    3.2416511602300941e-04,
    2.2258837901559931e-04,
    1.5933961044550435e-04,
    1.1795407954778015e-04,
    8.9747815033580441e-05,
    6.9865240062507602e-05,
    5.5448606878905590e-05,
    4.4741291122519738e-05,
    3.6622912455639674e-05,
    3.0355890459734103e-05,
    2.5441127524003634e-05,
    2.1532675679363741e-05,
    1.8385592427393618e-05,
    1.5823140598716389e-05,
    1.3715618753481825e-05,
    1.1966380456107941e-05,
    1.0502408404591640e-05,
    9.2678395981504384e-06,
    8.2194414667129873e-06,
    7.3234017357378107e-06,
    6.5530179239553724e-06,
    5.8870124778673897e-06,
    5.3082892213669586e-06,
    4.8030052160956917e-06,
    4.3598708086404928e-06,
    3.9696166402265858e-06,
    3.6245841154380182e-06,
    3.3184080670775488e-06,
    3.0457689075452661e-06,
    2.8021976072705791e-06,
    2.5839211626435484e-06,
    2.3877393365795920e-06,
    2.2109257278669045e-06,
    1.2379050278180667e-04,
    2.5523354642842020e-04,
    6.2628124037249436e-05,
    -6.5184029569528376e-05,
    -5.9802001136539608e-05,
    -3.4508098801824594e-05,
    -1.8866188456778058e-05,
    -1.0786073400461183e-05,
    -6.5490414656727799e-06,
    -4.1957124571079299e-06,
    -2.8099901923876796e-06,
    -1.9519590431908483e-06,
    -1.3978638520631232e-06,
    -1.0271784000907372e-06,
    -7.7163101550539683e-07,
    -5.9084588213520257e-07,
    -4.6004336988564211e-07,
    -3.6351888157791521e-07,
    -2.9103526090443669e-07,
    -2.3575147922391713e-07,
    -1.9299383576615374e-07,
    -1.5950550836814984e-07,
    -1.3297620168994182e-07,
    -1.1174039645306186e-07,
    -9.4579640789555682e-08,
    -8.0590506336562419e-08,
    -6.9094845592464386e-08,
    -5.9577814419147795e-08,
    -5.1644434522137382e-08,
    -4.4988733132603145e-08,
    -3.9371540618456318e-08,
    -3.4604329078700279e-08,
    -3.0537319665645444e-08,
    -2.7050641773760640e-08,
    -2.4047698079628606e-08,
    -2.1450140653076420e-08,
    -1.9194034795537663e-08,
    -1.7226906761078945e-08,
    -1.5505454713292366e-08,
    -1.3993761390912701e-08,
    1.5589313375278431e-05,
    -3.9044484069978318e-06,
    -1.3852007483424491e-05,
    -2.2938280758405475e-06,
    1.6570754162807488e-06,
    1.3067295664399593e-06,
    6.9217277211243519e-07,
    3.5589609318838041e-07,
    1.9234367945132980e-07,
    1.1044384043699152e-07,
    6.6937826033086210e-08,
    4.2453504217067160e-08,
    2.7968424226937400e-08,
    1.9028345700994687e-08,
    1.3307939750783071e-08,
    9.5322526596600146e-09,
    6.9719549892565551e-09,
    5.1941871071443806e-09,
    3.9336274035612807e-09,
    3.0229518047482780e-09,
    2.3539334930117195e-09,
    1.8549660401235481e-09,
    1.4776958092176171e-09,
    1.1888621749302797e-09,
    9.6519889182891635e-10,
    7.9017896069955696e-10,
    6.5189621405926846e-10,
    5.4166129355766879e-10,
    4.5305626265126635e-10,
    3.8128786763342816e-10,
    3.2273925570498371e-10,
    2.7465486181680111e-10,
    2.3491637845663639e-10,
    2.0188174285383515e-10,
    1.7426785407145328e-10,
    1.5106482886960556e-10,
    1.3147218074086502e-10,
    1.1485117473087746e-10,
    1.0068904935401045e-10,
    8.8571684332084000e-11,
    -4.8332654085894159e-08,
    -1.3868433189528600e-06,
    4.2843429515165595e-07,
    4.3500005885242862e-07,
    3.0423236105582580e-08,
    -3.6077547573691073e-08,
    -2.3327204877037772e-08,
    -1.1465986186161960e-08,
    -5.6156498862142242e-09,
    -2.9034656478573205e-09,
    -1.5941512727292375e-09,
    -9.2328775715744177e-10,
    -5.5958747575283708e-10,
    -3.5249722600957830e-10,
    -2.2951542469107864e-10,
    -1.5378602821103533e-10,
    -1.0565996107773030e-10,
    -7.4217820626287702e-11,
    -5.3166841655274213e-11,
    -3.8762169368979863e-11,
    -2.8710784200538460e-11,
    -2.1572294029865265e-11,
    -1.6420872542991015e-11,
    -1.2648899823898874e-11,
    -9.8500008895614532e-12,
    -7.7476052076599312e-12,
    -6.1505197862212517e-12,
    -4.9246077110169074e-12,
    -3.9744961351913711e-12,
    -3.2314876261238204e-12,
    -2.6455823213523599e-12,
    -2.1799419492710326e-12,
    -1.8071566798345910e-12,
    -1.5066675157532525e-12,
    -1.2628779662137853e-12,
    -1.0638914758502587e-12,
    -9.0054287523780681e-13,
    -7.6571033692342025e-13,
    -6.5385447386172934e-13,
    -5.6060487417169034e-13,
    -8.6708716771752525e-08,
    3.4739799225702673e-08,
    5.0099338564342847e-08,
    -2.4095323159275005e-08,
    -7.7265252329903231e-09,
    2.7930098114092204e-11,
    6.3833602361502179e-10,
    3.4845953280678101e-10,
    1.6128836642799586e-10,
    7.6018003587705457e-11,
    3.7931233172533726e-11,
    2.0076302576834647e-11,
    1.1196018791992989e-11,
    6.5299774356606809e-12,
    3.9583973823196605e-12,
    2.4811247525458791e-12,
    1.6013195863801387e-12,
    1.0605197567587458e-12,
    7.1864872468349289e-13,
    4.9708835769379440e-13,
    3.5021562110175591e-13,
    2.5094185365273093e-13,
    1.8252867931431730e-13,
    1.3461120314684418e-13,
    1.0056475887132893e-13,
    7.5979945046041001e-14,
    5.8026077400544995e-14,
    4.4770117866078150e-14,
    3.4867413864458417e-14,
    2.7370942253712843e-14,
    2.1674253338083278e-14,
    1.7292672182321005e-14,
    1.3888824944250449e-14,
    1.1242264328627400e-14,
    9.1456451475953570e-15,
    7.4781715025585720e-15,
    6.1697259690678489e-15,
    5.1027041179801145e-15,
    4.2472086322306384e-15,
    3.5468966539119260e-15,
    -3.0464135358924052e-09,
    7.9615196129096799e-09,
    -4.8772461390673692e-09,
    -1.7873285360851356e-11,
    5.4983244033198166e-10,
    8.3857579725838089e-11,
    -7.9393100027776333e-12,
    -9.2457863417070372e-12,
    -4.4533923484971243e-12,
    -1.9683986478989003e-12,
    -9.0008113716737776e-13,
    -4.3627191998236599e-13,
    -2.2408934920531787e-13,
    -1.2096697192463241e-13,
    -6.8259152372154503e-14,
    -4.0039103597522083e-14,
    -2.4292005024794695e-14,
    -1.5155945313372782e-14,
    -9.7193078311630020e-15,
    -6.3793928357481446e-15,
    -4.2795381810785469e-15,
    -2.9265001463399190e-15,
    -2.0357673275900284e-15,
    -1.4363243308947498e-15,
    -1.0367304869732260e-15,
    -7.5401464834173603e-16,
    -5.5219511155925258e-16,
    -4.1231196713696560e-16,
    -3.1382686829267489e-16,
    -2.3329387522989155e-16,
    -1.7851179606579056e-16,
    -1.3890566981747291e-16,
    -1.0663082254460482e-16,
    -8.4893135626348126e-17,
    -6.6671581791394789e-17,
    -5.1878825398471645e-17,
    -4.5541139167351454e-17,
    -3.5437579998554308e-17,
    -2.8132949338341387e-17,
    -2.3886874662669007e-17,
    3.6780827309055490e-10,
    -2.7087210608065190e-10,
    -2.2551888517931040e-11,
    1.0462695209322805e-10,
    -2.0331073917688513e-11,
    -6.9092766928063353e-12,
    -5.6584195297950210e-13,
    1.6748886476789725e-13,
    1.1252010696944504e-13,
    4.9580588866946286e-14,
    2.1157362350866865e-14,
    9.4243488006598542e-15,
    4.4618561692099181e-15,
    2.2169481496647891e-15,
    1.1523947763575617e-15,
    6.2799837823390998e-16,
    3.6747257557026988e-16,
    2.2005813965640984e-16,
    1.1655358069556029e-16,
    8.1552326627383441e-17,
    5.2169025508451621e-17,
    2.9572731131671302e-17,
    2.0057932206071347e-17,
    8.3078591301455791e-18,
    6.2755457077549183e-18,
    8.8761491683639892e-18,
    -5.0388383388700365e-18,
    -1.0329347980379660e-17,
    -7.2768186322349777e-18,
    -9.8693036637266505e-18,
    -7.0684456182215551e-18,
    -8.1211352604452094e-18,
    -7.2687002031175703e-18,
    -1.3001664231525827e-17,
    -8.9343312437053838e-18,
    -2.5816604593351312e-18,
    -3.6140540287652706e-18,
    -9.8192400175026463e-18,
    -9.3294281274191454e-18,
    -1.1890792513960762e-17,
    3.1471218947400065e-11,
    -4.6016913682573843e-11,
    2.7570162916916036e-11,
    -7.6752008116436721e-12,
    -1.2566783765692589e-13,
    3.5012675531959598e-13,
    5.8007332191153743e-14,
    1.5269499182194629e-15,
    -2.3043261446838123e-15,
    -1.1746562612035171e-15,
    -5.0222916424513903e-16,
    -2.0835841453141375e-16,
    -1.3310421585701673e-16,
    -5.7298642638974155e-17,
    -2.5165484766980954e-17,
    -2.3377018809862073e-17,
    8.5776053153641201e-18,
    -6.3177397082478566e-18,
    -9.2594989147529785e-18,
    -8.4297929236490187e-18,
    -9.6474699219736227e-18,
    -9.6038556641539097e-18,
    -7.7558894786556551e-18,
    -2.1975648904607044e-18,
    -1.2470504947859478e-17,
    -9.5304127589423540e-18,
    -2.5167963022717566e-18,
    -5.2187091207602557e-18,
    -3.4171512561508584e-18,
    -5.6688016718120353e-19,
    7.9572027590433261e-19,
    1.9085737177090914e-18,
    3.0028860999821759e-18,
    6.8551980594613839e-19,
    1.4085372495054257e-19,
    -1.5708321709701739e-18,
    -1.0777881876283142e-18,
    4.9150638784212226e-19,
    1.7649409106967510e-18,
    2.0735140249166010e-19,
    -8.7529858533273309e-13,
    1.9784238907331802e-12,
    -1.2542708215602051e-12,
    1.1536943571454397e-13,
    7.5481601999607664e-14,
    -1.1036328908227536e-14,
    -3.2400624413999208e-15,
    -3.5099198981986223e-16,
    2.6864665497346770e-17,
    3.6832159094350282e-17,
    4.7156406800574091e-17,
    3.7832151673225365e-17,
    -2.1822540753699919e-16,
    -2.8032224400249696e-17,
    -3.8183500417154624e-17,
    -1.6083664424015229e-17,
    6.7567066140208485e-18,
    -2.4637654997365622e-17,
    -2.3645770466427362e-17,
    -1.1075593481702976e-17,
    -6.3702229956988566e-18,
    -1.4353947530825892e-17,
    -1.6316095131537545e-17,
    -1.3795843564507769e-17,
    -6.1486030187589727e-18,
    1.9764718187333762e-17,
    -1.8344458457066577e-17,
    -3.4661904929926904e-18,
    -4.0864561601598039e-18,
    -5.9134696285910387e-18,
    -7.0735961542184161e-18,
    -3.3391644086490990e-18,
    -2.9688968862007570e-18,
    2.4763329740386374e-18,
    -1.7891759113927182e-18,
    3.7702422906236282e-19,
    -1.0290464173153739e-18,
    -5.3215821292028128e-18,
    -4.6060468987780064e-18,
    -2.7587633105047087e-18,
    -2.1244677175265984e-13,
    2.6453255692985769e-13,
    -8.7421608550714282e-14,
    2.4403435031282423e-14,
    -5.6240239742576080e-15,
    1.9797886962046559e-17,
    1.5394127936026295e-16,
    2.6186110750137274e-17,
    7.7607540917117954e-19,
    1.4334034811893345e-17,
    -2.4668724006435052e-17,
    3.3984224413084080e-20,
    9.6704707668306606e-17,
    -1.2359424292727676e-17,
    -5.5740001410623766e-18,
    -1.3465591032814233e-17,
    2.7573108752620869e-18,
    -3.3192946378012911e-19,
    -4.9208959600113081e-18,
    -7.9716422059649320e-18,
    -1.0240193499510217e-17,
    -7.6307771576427431e-18,
    -6.5644441359837161e-18,
    -3.8378715209079589e-18,
    -1.0077366326293809e-17,
    -7.9809348823206918e-18,
    -2.8610297657260065e-19,
    -4.5659802072645361e-18,
    -4.1154368428166606e-18,
    1.9150698029679554e-18,
    -8.9502970515671821e-19,
    1.9776354829908063e-18,
    2.7857190119190655e-18,
    1.7543161715334130e-18,
    5.9830877284905846e-19,
    3.8947976219238639e-18,
    -4.8434038396543021e-19,
    1.0800171750910884e-18,
    5.8581165881414792e-19,
    -4.1805552948359571e-19,
    -3.2820960660813087e-15,
    -1.4226354450292694e-14,
    1.1214220602258153e-14,
    -2.0966943208968455e-15,
    2.8897987809878284e-16,
    7.2091078749147014e-17,
    4.7930226988001101e-17,
    -2.1158631718862402e-17,
    -5.5260287612820675e-17,
    -6.9754368815157386e-17,
    -3.2199619904939702e-17,
    -9.1484016306450493e-18,
    2.2837256099518662e-16,
    5.7162323601839479e-18,
    7.9874712186110341e-18,
    1.1091610151718364e-17,
    3.6727923471414516e-17,
    6.0476374952471572e-18,
    -5.2586097907891295e-18,
    5.3726779533668942e-18,
    1.3029418996456600e-17,
    6.5687062615787201e-18,
    2.6158057045569595e-18,
    1.8186784855963689e-18,
    1.5695509186883639e-17,
    1.3187359529256599e-17,
    -1.5497071081570904e-18,
    1.9160076515355107e-17,
    1.1081317018704734e-17,
    1.8460987169852621e-17,
    1.4734198059360733e-17,
    1.2975253493220760e-17,
    9.4739008697168817e-18,
    1.6681118857914359e-17,
    2.4562790168335696e-17,
    5.2231744148404371e-18,
    6.6410956724454060e-18,
    9.7706299583159937e-18,
    1.2576099294141319e-17,
    1.8854826062539757e-17,
    9.4582041810145593e-16,
    -1.5239113471072760e-15,
    -3.5494975497156405e-16,
    4.5819941058583237e-17,
    7.4125918378702632e-18,
    -1.6203025790261359e-17,
    1.3311263554898184e-17,
    -8.7220990577712359e-18,
    9.3811839173017029e-19,
    -3.9657218250364402e-18,
    -2.2523279089397687e-17,
    -1.4670293548273160e-17,
    1.3204428197664262e-16,
    3.4153435682976849e-18,
    -2.1186010664768057e-18,
    -1.9408445672165769e-17,
    -1.5548550264399527e-17,
    -3.7232283631377061e-18,
    -3.3015186386196593e-18,
    -3.8785777166758676e-18,
    -1.0516109047764820e-18,
    -4.1760031258940222e-18,
    -6.0167280367523893e-18,
    -2.2832391771277498e-18,
    -9.3703236650294458e-18,
    -5.1297263386626190e-18,
    -6.8176095985499013e-18,
    -6.3592382008398049e-18,
    -7.9400413006548707e-18,
    -6.1299940379904053e-18,
    -4.0821988439568698e-18,
    -5.3074572707122335e-18,
    -3.9377449647178245e-18,
    -5.6934809896378488e-18,
    -4.1471903786725809e-18,
    -2.4140530915320231e-18,
    -5.5095881270077320e-18,
    -3.3812800483616948e-18,
    -4.3485391510461679e-18,
    -2.9686862953379555e-18,
    1.9725666778686862e-01,
    6.6909860224101753e-02,
    3.7383684832365538e-02,
    2.8379722367316600e-02,
    2.4414741765299109e-02,
    2.1977639678830579e-02,
    2.0195488695239638e-02,
    1.8794285376276174e-02,
    1.7650718447299561e-02,
    1.6693723285874474e-02,
    1.5877396744630411e-02,
    1.5170302682980318e-02,
    1.4550049729651800e-02,
    1.4000191872249119e-02,
    1.3508339832917512e-02,
    1.3064958272003957e-02,
    1.2662572223287580e-02,
    1.2295227674438022e-02,
    1.1958115345913007e-02,
    1.1647302333625235e-02,
    1.1359536864483736e-02,
    1.1092103726656722e-02,
    1.0842715526328850e-02,
    1.0609429727684234e-02,
    1.0390584547992810e-02,
    1.0184748842976928e-02,
    9.9906825109586025e-03,
    9.8073049018835446e-03,
    9.6336693861060977e-03,
    9.4689427118330050e-03,
    9.3123881206723606e-03,
    9.1633514384781914e-03,
    9.0212495410124799e-03,
    8.8855607295895284e-03,
    8.7558166537953751e-03,
    8.6315954956883694e-03,
    8.5125161890467881e-03,
    8.3982334928722861e-03,
    8.2884337738453832e-03,
    8.1828313802226917e-03,
    -1.2146382995943859e-01,
    -2.5363704463192620e-02,
    -6.9495981506530850e-03,
    -2.6456448166112716e-03,
    -1.4578139962271842e-03,
    -1.0145942228098610e-03,
    -7.7969096971543608e-04,
    -6.2745100462517178e-04,
    -5.1966578881691976e-04,
    -4.3965348628557114e-04,
    -3.7827487172778761e-04,
    -3.2996472817812042e-04,
    -2.9113206089804403e-04,
    -2.5936291128889283e-04,
    -2.3298034913275475e-04,
    -2.1078683984424869e-04,
    -1.9190672944460608e-04,
    -1.7568645438906133e-04,
    -1.6162936509045677e-04,
    -1.4935201048847614e-04,
    -1.3855412261013847e-04,
    -1.2899757479842159e-04,
    -1.2049135402216354e-04,
    -1.1288064736361691e-04,
    -1.0603879553205523e-04,
    -9.9861278082643892e-05,
    -9.4261160537570485e-05,
    -8.9165608194503946e-05,
    -8.4513188286765881e-05,
    -8.0251761705210802e-05,
    -7.6336820455264324e-05,
    -7.2730165536263221e-05,
    -6.9398847269089783e-05,
    -6.6314309740024416e-05,
    -6.3451695299615165e-05,
    -6.0789275533427051e-05,
    -5.8307982890195377e-05,
    -5.5991022966585495e-05,
    -5.3823551835378137e-05,
    -5.1792406143389172e-05,
    2.4883656052023050e-02,
    4.4133457239478851e-03,
    9.7509582209574786e-04,
    2.5034167701289367e-04,
    8.0772413086644133e-05,
    3.7633912506735338e-05,
    2.2914367911406182e-05,
    1.5750984075694088e-05,
    1.1478805246396461e-05,
    8.6842054303759812e-06,
    6.7589609678842249e-06,
    5.3825166867449150e-06,
    4.3688025892054779e-06,
    3.6035504428074453e-06,
    3.0136103855444085e-06,
    2.5505321449210985e-06,
    2.1812800291543595e-06,
    1.8827551974675967e-06,
    1.6384471871216589e-06,
    1.4363229839864723e-06,
    1.2674596983406022e-06,
    1.1251373383534799e-06,
    1.0042237771437779e-06,
    9.0074966371504982e-07,
    8.1160943232661676e-07,
    7.3434763493704386e-07,
    6.6700401581811332e-07,
    6.0799967458961405e-07,
    5.5605239036917872e-07,
    5.1011292138938312e-07,
    4.6931657999511067e-07,
    4.3294606057675529e-07,
    4.0040264615265802e-07,
    3.7118371577753378e-07,
    3.4486503450837904e-07,
    3.2108670534781479e-07,
    2.9954194802998927e-07,
    2.7996807690977246e-07,
    2.6213920182621457e-07,
    2.4586028853280717e-07,
    -3.7481162484445663e-03,
    -5.8252431365293897e-04,
    -1.1447938329302068e-04,
    -2.6381110517532145e-05,
    -6.3384021562520202e-06,
    -1.8650654716729882e-06,
    -7.9679087170351662e-07,
    -4.4569323720995549e-07,
    -2.8248349552794272e-07,
    -1.9067627791149174e-07,
    -1.3419450960235656e-07,
    -9.7557524221673101e-08,
    -7.2843241236468597e-08,
    -5.5629838720712631e-08,
    -4.3312148219369746e-08,
    -3.4290454888105023e-08,
    -2.7547871898107689e-08,
    -2.2418423823995463e-08,
    -1.8454422738730097e-08,
    -1.5347906675898211e-08,
    -1.2882644121079301e-08,
    -1.0903998820654936e-08,
    -9.2995404633987895e-09,
    -7.9862921309455976e-09,
    -6.9021744799122742e-09,
    -6.0001609730579011e-09,
    -5.2442187658796707e-09,
    -4.6064468034350463e-09,
    -4.0650297862227509e-09,
    -3.6027565371519679e-09,
    -3.2059342423913913e-09,
    -2.8635840146744742e-09,
    -2.5668386886033444e-09,
    -2.3084876914159066e-09,
    -2.0826299675722546e-09,
    -1.8844070573152822e-09,
    -1.7097962016817987e-09,
    -1.5554487812450613e-09,
    -1.4185632385374653e-09,
    -1.2967845107486350e-09,
    4.5255522832661667e-04,
    6.3020090296416858e-05,
    1.0747646099036360e-05,
    2.3726467275033376e-06,
    5.3903418350333256e-07,
    1.2043247461220918e-07,
    3.3953399529424985e-08,
    1.3953937238003808e-08,
    7.3895424633619084e-09,
    4.4064981229083616e-09,
    2.7987163937574058e-09,
    1.8567481911013474e-09,
    1.2752882339887191e-09,
    9.0172410813176561e-10,
    6.5361295348953750e-10,
    4.8406541370869590e-10,
    3.6530293520585528e-10,
    2.8028822891810721e-10,
    2.1825143758032096e-10,
    1.7220069310857349e-10,
    1.3748794340095328e-10,
    1.1095703977546859e-10,
    9.0423504629136167e-11,
    7.4349003989717577e-11,
    6.1633058631124143e-11,
    5.1476976087492462e-11,
    4.3293452747417372e-11,
    3.6645269581354748e-11,
    3.1203323822268089e-11,
    2.6717302807337541e-11,
    2.2994955155770954e-11,
    1.9887273083631629e-11,
    1.7277838226237300e-11,
    1.5074934023310468e-11,
    1.3205791234780601e-11,
    1.1612253603378662e-11,
    1.0247557794950709e-11,
    9.0738676249209443e-12,
    8.0603628012683169e-12,
    7.1818529227223313e-12,
    -4.5728577828835574e-05,
    -5.9093775065762806e-06,
    -8.6636788659616969e-07,
    -1.7153177628855764e-07,
    -4.0733085495037800e-08,
    -8.5673645273972065e-09,
    -1.8134438466985275e-09,
    -5.0960431366140894e-10,
    -2.0719534378551746e-10,
    -1.0577149882352154e-10,
    -6.0154598936991616e-11,
    -3.6360754304876782e-11,
    -2.2966080782903455e-11,
    -1.5034100740820233e-11,
    -1.0145331743447747e-11,
    -7.0285983736398146e-12,
    -4.9825528515971263e-12,
    -3.6044495386279413e-12,
    -2.6548993429481669e-12,
    -1.9872612690729230e-12,
    -1.5092427650693754e-12,
    -1.1613388271402183e-12,
    -9.0434851237260896e-13,
    -7.1193511575576673e-13,
    -5.6607854739842208e-13,
    -4.5425486407950596e-13,
    -3.6762096914219247e-13,
    -2.9985314826140275e-13,
    -2.4635977903466279e-13,
    -2.0379203593036521e-13,
    -1.6964848257180854e-13,
    -1.4206298406684554e-13,
    -1.1962358712972654e-13,
    -1.0125652871409794e-13,
    -8.6129824624861003e-14,
    -7.3603213386222329e-14,
    -6.3172538621822355e-14,
    -5.4447652483767099e-14,
    -4.7109602362998242e-14,
    -4.0911902763485583e-14,
    3.9678452390307675e-06,
    4.8752906044013034e-07,
    6.5004337456804203e-08,
    1.0308100713166021e-08,
    2.5208611460585318e-09,
    5.6947972113473213e-10,
    1.0925652787562051e-10,
    2.2665744582416308e-11,
    6.5349121144705951e-12,
    2.6676743362948671e-12,
    1.3266608738629171e-12,
    7.2634481633640871e-13,
    4.2140497255772606e-13,
    2.5532586162681107e-13,
    1.6040450199468572e-13,
    1.0395667809400247e-13,
    6.9230122730077088e-14,
    4.7224059607011782e-14,
    3.2904877073371508e-14,
    2.3369152741641020e-14,
    1.6883544508037245e-14,
    1.2384612451079063e-14,
    9.2195329529060512e-15,
    6.9528805767137792e-15,
    5.3061223341842704e-15,
    4.0907446053019829e-15,
    3.1791543665344879e-15,
    2.5004485279492276e-15,
    1.9763805016143138e-15,
    1.5805793137302699e-15,
    1.2770839908487255e-15,
    1.0294698880885095e-15,
    8.4103558029174488e-16,
    6.8931808460939323e-16,
    5.6893704992720724e-16,
    4.7262083376030186e-16,
    3.9502230122280302e-16,
    3.3217109620079518e-16,
    2.8189596197020954e-16,
    2.3492313093391089e-16,
    -3.0170718414958101e-07,
    -3.5477700709160043e-08,
    -4.6032203945811926e-09,
    -5.7998622805597412e-10,
    -1.2368753628093167e-10,
    -3.2440882760618835e-11,
    -6.4593907320769518e-12,
    -1.1597370806709118e-12,
    -2.4414080640743838e-13,
    -7.3541950190741440e-14,
    -3.0314656557700950e-14,
    -1.4782446941953112e-14,
    -7.8627888352407362e-15,
    -4.3946497923446230e-15,
    -2.5743956678062652e-15,
    -1.5530663802382055e-15,
    -9.6599837956164658e-16,
    -6.2758511306921402e-16,
    -4.1528433223666065e-16,
    -2.8124536891675384e-16,
    -1.9464305861597360e-16,
    -1.3642467721128551e-16,
    -9.7284958099119096e-17,
    -7.0234827190062987e-17,
    -5.2920314835831658e-17,
    -4.0236107722473763e-17,
    -2.9155634719983455e-17,
    -2.4263251382485937e-17,
    -1.5829262178304079e-17,
    -1.3110965798279733e-17,
    -1.1547261209088473e-17,
    -9.9084325504329600e-18,
    -6.2118320830370259e-18,
    -5.7875870775913526e-18,
    -4.2371475506664801e-18,
    -3.7434591361516277e-18,
    -2.6435009364585557e-18,
    -3.2827358299799522e-18,
    -3.4998012583122761e-18,
    -5.6727636209808431e-19,
    2.0416691157275775e-08,
    2.3133645401173620e-09,
    2.9127343253244451e-10,
    3.5511038885101189e-11,
    4.8324743059137254e-12,
    1.5047362075019475e-12,
    3.4369833501455545e-13,
    6.0841377750681130e-14,
    1.0596907048802009e-14,
    2.3304086088666082e-15,
    7.3557297632561616e-16,
    2.9065599926137213e-16,
    1.4978501721614238e-16,
    8.1824294002816554e-17,
    4.0952062611235523e-17,
    2.6662950828840996e-17,
    1.8137923719804804e-18,
    9.2820706242343119e-18,
    2.9409009477803611e-18,
    2.1013200698886131e-18,
    2.4544717364957785e-18,
    5.8723303949237479e-19,
    -3.8511798125695206e-18,
    -2.3556975155673377e-18,
    3.2253842347694665e-18,
    2.8678350857237005e-18,
    1.8567523927267472e-18,
    -5.4697916178523415e-19,
    -4.3108858613426249e-18,
    -6.3364339261354406e-18,
    2.1743859319452598e-18,
    -4.0314765925518989e-18,
    -4.9390493143019197e-18,
    -5.2343571734475658e-18,
    -6.0759676586186623e-18,
    -4.8431503703525607e-18,
    -2.1109607044655250e-18,
    -1.6111699119252137e-18,
    -3.5491065958260216e-18,
    -2.5185734997352883e-18,
    -1.2430125829279854e-09,
    -1.3792180279176391e-10,
    -1.5893096884354955e-11,
    -2.2916912537577670e-12,
    -1.7774930570295617e-13,
    -5.3230622635750456e-14,
    -1.5677943661607039e-14,
    -2.9989335582419783e-15,
    -4.9069890298826848e-16,
    -8.6992422896732218e-17,
    -2.4749344859022359e-17,
    -7.9808618399055408e-18,
    -7.3579379399670595e-18,
    1.2035375596547617e-18,
    -6.0430561844579499e-19,
    4.2196635542963124e-18,
    -1.0878486310181250e-17,
    -3.1462819151165335e-18,
    -9.3399713632500469e-19,
    -1.7963383908619946e-18,
    -2.1184262668028483e-18,
    -2.0271237194408360e-18,
    -2.5666453765969845e-18,
    -1.6064648811594838e-18,
    -2.0462608253134057e-18,
    -2.3591018904327660e-18,
    -1.8766155960316212e-18,
    -7.5803336900017665e-19,
    6.8791611385027332e-19,
    7.0796001178562505e-19,
    3.4093811790922878e-19,
    -6.3959387468117968e-20,
    -9.8780571183241816e-19,
    -8.6050850761733696e-19,
    9.4149035122585896e-19,
    2.1400178260929902e-18,
    -2.1513873382591220e-19,
    -1.0762731809348004e-18,
    -9.9222552637515017e-19,
    6.1042991593934328e-19,
    6.8741911821466990e-11,
    7.5185044200416472e-12,
    7.9836992380174449e-13,
    1.2673050275337194e-13,
    9.8016083415813717e-15,
    1.2144126092470643e-15,
    5.9047805038853869e-16,
    1.3286793288207377e-16,
    2.1375517044116258e-17,
    9.5823613200043241e-18,
    1.5601235571774068e-18,
    2.6013320463980147e-18,
    -2.8134588505452041e-17,
    -6.3526555585024018e-18,
    -1.6918793361508205e-18,
    -5.8084028407430224e-18,
    -8.8435154517611881e-18,
    -4.6891543901304694e-18,
    -5.8182000653333527e-18,
    -8.2450401634242918e-18,
    -4.8003022139311122e-18,
    -4.8281736287139481e-18,
    -1.6895144888359134e-18,
    -5.1916844445482696e-18,
    -3.9901730909100123e-18,
    6.1671839619475223e-18,
    -7.0151506420071367e-19,
    2.1633285401441221e-18,
    -3.9161871534864787e-18,
    -3.8857819737233846e-18,
    -1.7879090289025892e-18,
    -2.2580913504057646e-18,
    -4.3080761370996870e-18,
    -3.5649228683900701e-18,
    -3.5426257365638014e-18,
    -1.5778599120392164e-18,
    -3.3927113085652140e-19,
    9.1021283974128238e-19,
    -2.7019225161142582e-18,
    -1.9841068972072195e-18,
    -3.4846761608482490e-12,
    -3.7142228301562742e-13,
    -4.1992369077070842e-14,
    -4.8554340174918548e-15,
    -7.6120774659889100e-16,
    -1.0202676187881122e-17,
    -2.0008169848813655e-17,
    -3.4081312971807837e-18,
    -5.3464816366554214e-18,
    -6.0919365310659162e-18,
    8.6127744790591479e-19,
    -3.3717051606388640e-19,
    2.3722915416901891e-17,
    -1.3790066949141081e-19,
    9.2063312309102172e-20,
    3.8259152878856733e-18,
    -4.2614834676934485e-18,
    -4.1311755323984839e-18,
    -1.6150795296362298e-18,
    -1.0599094194046478e-18,
    -1.0503490865815849e-18,
    -1.7897038973478979e-18,
    -4.1964272109868250e-19,
    -5.7233205857749659e-19,
    -1.9393155971968636e-18,
    -1.4417976051014622e-18,
    -9.2831812372334102e-19,
    -7.0049329561748005e-19,
    1.6740711460023293e-18,
    8.0764521978924101e-19,
    4.3298307957534705e-19,
    -2.6472785365035156e-18,
    -8.8113011880623954e-19,
    -1.3766022265271093e-19,
    6.3852761559612763e-19,
    4.5928722500918331e-19,
    3.5557106250084383e-19,
    -1.5928003181041336e-18,
    -1.4403582782315644e-18,
    9.5771476091580465e-19,
    1.6290462804442829e-13,
    1.7022663235215606e-14,
    2.1532181327720677e-15,
    1.3123778340411436e-16,
    6.3702681562659118e-17,
    -6.1171583280608134e-18,
    1.1607616721485789e-18,
    -5.8713043149309150e-18,
    -7.7109065463255641e-18,
    -8.8544567501561953e-18,
    -7.7636377605349590e-18,
    -2.4764265591586753e-18,
    4.1910094094085634e-17,
    4.0835052283755916e-20,
    6.5906424466898288e-18,
    -6.2224520165941453e-18,
    -1.4669401943340168e-18,
    5.6266314809993433e-19,
    3.0617430368829758e-18,
    -1.6855849009318545e-18,
    3.5298696641483059e-18,
    1.5052863333070893e-18,
    4.1151861418725964e-18,
    3.0000686087436668e-18,
    1.6333599063788693e-18,
    -8.6213425983793477e-19,
    6.3632443585332573e-18,
    4.3886924037339072e-18,
    3.8007393652991448e-18,
    3.9190682099850289e-18,
    4.2667989289674681e-18,
    4.8167854931714657e-18,
    2.8227018966289556e-18,
    1.9413523823331145e-18,
    7.4836139205974472e-19,
    1.6990629992837829e-18,
    2.3802026394693899e-18,
    1.8949910988002139e-18,
    2.9487716835607791e-18,
    3.8063077815196570e-18,
    -7.0683547743547675e-15,
    -7.5540950921857290e-16,
    -9.1681285427700447e-17,
    -9.8490039351705989e-18,
    -2.1169993575348708e-18,
    3.4447908240600678e-18,
    -3.0452379921167621e-18,
    4.6354518274094028e-18,
    -4.3834271697286284e-18,
    8.4469632091038718e-19,
    1.3255312007105525e-18,
    2.6619108023150537e-18,
    2.9557667263117674e-17,
    -4.3421788535493690e-18,
    -4.9716681201546247e-19,
    8.3649538651346378e-18,
    6.3924837207105602e-18,
    -1.0920161879402945e-18,
    -7.6303387458645010e-19,
    -1.4264631426765349e-18,
    -2.3698069200487496e-18,
    -1.2585560074860830e-18,
    -3.7495221537727744e-21,
    -5.4520461431441879e-19,
    -6.5549290297634619e-20,
    -1.5773342408433813e-18,
    -2.6925766265750115e-18,
    -1.6439350980264045e-18,
    -9.4190684272445352e-19,
    -1.2144693706001265e-18,
    -2.7246118742585042e-19,
    -1.1120173274037579e-18,
    -1.1933115224694745e-19,
    -1.4577905525408411e-18,
    -1.0171822248252886e-18,
    -1.9591710230823735e-18,
    -8.5972816965395310e-19,
    -1.5518484254097339e-18,
    -9.4550756861119947e-19,
    -1.0542786774059970e-18,
    4.8292368746447434e-02,
    3.5177285962041810e-02,
    2.6652374594482855e-02,
    2.0837165721495427e-02,
    1.6749331163408484e-02,
    1.3835946385251810e-02,
    1.1728274570888785e-02,
    1.0163313989448674e-02,
    8.9642052834343084e-03,
    8.0179730391209177e-03,
    7.2525486500758605e-03,
    6.6206432281843159e-03,
    6.0901062888014702e-03,
    5.6383428452062437e-03,
    5.2490115330326445e-03,
    4.9100006943660493e-03,
    4.6121425561290860e-03,
    4.3483697029884664e-03,
    4.1131459611440900e-03,
    3.9020728757813289e-03,
    3.7116116498815089e-03,
    3.5388828539701278e-03,
    3.3815196541135879e-03,
    3.2375585822591833e-03,
    3.1053571014740466e-03,
    2.9835305973873369e-03,
    2.8709036558951036e-03,
    2.7664719850717333e-03,
